svm_type c_svc
kernel_type rbf
gamma 0.031
nr_class 2
total_sv 671
rho 0.30259667790216827
label 1 -1
nr_sv 318 353
SV
2.0 5:1.0 11:1.0 15:1.0 32:1.0 39:1.0 40:1.0 52:1.0 63:1.0 67:1.0 73:1.0 74:1.0 76:1.0 78:1.0 83:1.0 
2.0 5:1.0 18:1.0 19:1.0 39:1.0 40:1.0 63:1.0 67:1.0 73:1.0 74:1.0 76:1.0 80:1.0 83:1.0 
2.0 5:1.0 6:1.0 14:1.0 27:1.0 35:1.0 42:1.0 57:1.0 64:1.0 67:1.0 73:1.0 74:1.0 76:1.0 82:1.0 83:1.0 
2.0 3:1.0 6:1.0 17:1.0 19:1.0 39:1.0 42:1.0 50:1.0 64:1.0 70:1.0 72:1.0 74:1.0 76:1.0 82:1.0 83:1.0 
2.0 4:1.0 6:1.0 14:1.0 29:1.0 39:1.0 42:1.0 47:1.0 64:1.0 67:1.0 73:1.0 74:1.0 76:1.0 79:1.0 83:1.0 
2.0 5:1.0 6:1.0 15:1.0 22:1.0 36:1.0 40:1.0 49:1.0 63:1.0 67:1.0 73:1.0 74:1.0 76:1.0 80:1.0 83:1.0 
2.0 3:1.0 6:1.0 16:1.0 21:1.0 35:1.0 40:1.0 54:1.0 63:1.0 67:1.0 73:1.0 75:1.0 76:1.0 81:1.0 83:1.0 
2.0 5:1.0 7:1.0 18:1.0 19:1.0 39:1.0 40:1.0 50:1.0 63:1.0 67:1.0 73:1.0 74:1.0 76:1.0 80:1.0 87:1.0 
2.0 5:1.0 6:1.0 15:1.0 22:1.0 36:1.0 40:1.0 50:1.0 63:1.0 67:1.0 73:1.0 74:1.0 76:1.0 82:1.0 83:1.0 
2.0 5:1.0 6:1.0 15:1.0 20:1.0 37:1.0 40:1.0 57:1.0 63:1.0 67:1.0 73:1.0 74:1.0 76:1.0 78:1.0 83:1.0 
2.0 3:1.0 6:1.0 17:1.0 22:1.0 36:1.0 40:1.0 51:1.0 63:1.0 67:1.0 73:1.0 74:1.0 76:1.0 80:1.0 83:1.0 
2.0 3:1.0 6:1.0 18:1.0 22:1.0 36:1.0 40:1.0 51:1.0 63:1.0 67:1.0 73:1.0 74:1.0 76:1.0 82:1.0 83:1.0 
2.0 2:1.0 6:1.0 18:1.0 22:1.0 36:1.0 40:1.0 50:1.0 63:1.0 67:1.0 73:1.0 74:1.0 76:1.0 82:1.0 83:1.0 
2.0 2:1.0 6:1.0 16:1.0 20:1.0 37:1.0 40:1.0 47:1.0 63:1.0 67:1.0 73:1.0 75:1.0 76:1.0 80:1.0 83:1.0 
2.0 4:1.0 6:1.0 16:1.0 22:1.0 36:1.0 40:1.0 49:1.0 61:1.0 71:1.0 72:1.0 74:1.0 76:1.0 80:1.0 83:1.0 
2.0 4:1.0 6:1.0 14:1.0 20:1.0 37:1.0 40:1.0 47:1.0 63:1.0 67:1.0 73:1.0 74:1.0 76:1.0 78:1.0 83:1.0 
2.0 5:1.0 10:1.0 16:1.0 29:1.0 39:1.0 40:1.0 52:1.0 63:1.0 67:1.0 73:1.0 74:1.0 76:1.0 80:1.0 83:1.0 
2.0 3:1.0 7:1.0 18:1.0 19:1.0 39:1.0 40:1.0 50:1.0 63:1.0 67:1.0 73:1.0 74:1.0 76:1.0 81:1.0 83:1.0 
2.0 2:1.0 6:1.0 14:1.0 22:1.0 36:1.0 40:1.0 48:1.0 63:1.0 67:1.0 73:1.0 74:1.0 76:1.0 80:1.0 83:1.0 
2.0 5:1.0 10:1.0 17:1.0 21:1.0 35:1.0 40:1.0 48:1.0 63:1.0 71:1.0 73:1.0 74:1.0 76:1.0 80:1.0 83:1.0 
2.0 4:1.0 6:1.0 15:1.0 22:1.0 36:1.0 40:1.0 50:1.0 63:1.0 67:1.0 73:1.0 74:1.0 76:1.0 82:1.0 83:1.0 
2.0 5:1.0 6:1.0 17:1.0 25:1.0 38:1.0 40:1.0 51:1.0 63:1.0 67:1.0 73:1.0 74:1.0 76:1.0 80:1.0 88:1.0 
1.662189865671362 3:1.0 6:1.0 17:1.0 29:1.0 39:1.0 40:1.0 52:1.0 63:1.0 67:1.0 73:1.0 74:1.0 76:1.0 79:1.0 83:1.0 
2.0 2:1.0 10:1.0 18:1.0 32:1.0 39:1.0 42:1.0 52:1.0 64:1.0 67:1.0 73:1.0 74:1.0 76:1.0 82:1.0 103:1.0 
2.0 4:1.0 6:1.0 16:1.0 22:1.0 36:1.0 40:1.0 48:1.0 63:1.0 67:1.0 73:1.0 75:1.0 76:1.0 81:1.0 83:1.0 
2.0 5:1.0 7:1.0 18:1.0 19:1.0 39:1.0 40:1.0 47:1.0 61:1.0 67:1.0 72:1.0 74:1.0 76:1.0 82:1.0 83:1.0 
2.0 4:1.0 6:1.0 17:1.0 20:1.0 37:1.0 40:1.0 48:1.0 63:1.0 71:1.0 73:1.0 74:1.0 76:1.0 80:1.0 83:1.0 
2.0 3:1.0 6:1.0 16:1.0 29:1.0 39:1.0 40:1.0 50:1.0 63:1.0 67:1.0 73:1.0 74:1.0 76:1.0 82:1.0 83:1.0 
2.0 5:1.0 6:1.0 16:1.0 19:1.0 39:1.0 41:1.0 51:1.0 64:1.0 71:1.0 73:1.0 75:1.0 76:1.0 80:1.0 83:1.0 
2.0 3:1.0 6:1.0 14:1.0 20:1.0 37:1.0 40:1.0 47:1.0 63:1.0 67:1.0 73:1.0 74:1.0 76:1.0 82:1.0 83:1.0 
2.0 3:1.0 6:1.0 14:1.0 22:1.0 36:1.0 40:1.0 57:1.0 63:1.0 67:1.0 73:1.0 75:1.0 76:1.0 82:1.0 83:1.0 
2.0 4:1.0 6:1.0 14:1.0 25:1.0 38:1.0 40:1.0 50:1.0 63:1.0 67:1.0 73:1.0 74:1.0 77:1.0 82:1.0 83:1.0 
2.0 5:1.0 9:1.0 14:1.0 22:1.0 36:1.0 40:1.0 55:1.0 63:1.0 67:1.0 73:1.0 74:1.0 76:1.0 80:1.0 83:1.0 
2.0 5:1.0 16:1.0 20:1.0 37:1.0 40:1.0 61:1.0 67:1.0 72:1.0 74:1.0 76:1.0 81:1.0 83:1.0 
2.0 5:1.0 6:1.0 14:1.0 22:1.0 36:1.0 40:1.0 53:1.0 63:1.0 67:1.0 73:1.0 74:1.0 76:1.0 80:1.0 83:1.0 
2.0 4:1.0 6:1.0 17:1.0 22:1.0 36:1.0 40:1.0 47:1.0 63:1.0 67:1.0 73:1.0 74:1.0 76:1.0 81:1.0 83:1.0 
2.0 5:1.0 6:1.0 15:1.0 24:1.0 38:1.0 40:1.0 51:1.0 61:1.0 71:1.0 72:1.0 74:1.0 76:1.0 80:1.0 83:1.0 
2.0 2:1.0 10:1.0 15:1.0 19:1.0 39:1.0 42:1.0 52:1.0 64:1.0 71:1.0 73:1.0 75:1.0 76:1.0 81:1.0 
2.0 5:1.0 7:1.0 14:1.0 22:1.0 36:1.0 40:1.0 51:1.0 63:1.0 67:1.0 73:1.0 75:1.0 76:1.0 82:1.0 83:1.0 
1.253491250566895 4:1.0 8:1.0 15:1.0 19:1.0 39:1.0 40:1.0 50:1.0 63:1.0 67:1.0 73:1.0 74:1.0 76:1.0 82:1.0 83:1.0 
2.0 3:1.0 8:1.0 17:1.0 22:1.0 36:1.0 40:1.0 48:1.0 63:1.0 67:1.0 73:1.0 74:1.0 76:1.0 82:1.0 
2.0 4:1.0 6:1.0 18:1.0 20:1.0 37:1.0 40:1.0 57:1.0 63:1.0 67:1.0 73:1.0 74:1.0 76:1.0 82:1.0 83:1.0 
2.0 3:1.0 6:1.0 17:1.0 22:1.0 36:1.0 40:1.0 54:1.0 63:1.0 67:1.0 73:1.0 74:1.0 76:1.0 82:1.0 83:1.0 
2.0 3:1.0 10:1.0 17:1.0 29:1.0 39:1.0 40:1.0 52:1.0 61:1.0 67:1.0 72:1.0 74:1.0 76:1.0 80:1.0 83:1.0 
2.0 1:1.0 6:1.0 16:1.0 19:1.0 39:1.0 40:1.0 51:1.0 61:1.0 67:1.0 72:1.0 74:1.0 76:1.0 78:1.0 83:1.0 
2.0 4:1.0 6:1.0 15:1.0 20:1.0 37:1.0 40:1.0 50:1.0 63:1.0 67:1.0 73:1.0 75:1.0 76:1.0 80:1.0 83:1.0 
2.0 5:1.0 8:1.0 17:1.0 20:1.0 37:1.0 40:1.0 51:1.0 63:1.0 67:1.0 73:1.0 74:1.0 76:1.0 80:1.0 83:1.0 
2.0 4:1.0 6:1.0 15:1.0 29:1.0 39:1.0 40:1.0 47:1.0 63:1.0 67:1.0 73:1.0 74:1.0 76:1.0 78:1.0 83:1.0 
2.0 2:1.0 6:1.0 15:1.0 20:1.0 37:1.0 40:1.0 56:1.0 63:1.0 67:1.0 73:1.0 74:1.0 76:1.0 82:1.0 83:1.0 
2.0 3:1.0 6:1.0 15:1.0 20:1.0 37:1.0 40:1.0 51:1.0 63:1.0 67:1.0 73:1.0 75:1.0 76:1.0 80:1.0 83:1.0 
2.0 3:1.0 6:1.0 17:1.0 20:1.0 37:1.0 40:1.0 55:1.0 61:1.0 67:1.0 72:1.0 74:1.0 76:1.0 79:1.0 83:1.0 
2.0 3:1.0 7:1.0 14:1.0 19:1.0 39:1.0 40:1.0 52:1.0 63:1.0 67:1.0 73:1.0 74:1.0 76:1.0 82:1.0 83:1.0 
2.0 5:1.0 7:1.0 14:1.0 27:1.0 35:1.0 45:1.0 55:1.0 64:1.0 67:1.0 73:1.0 74:1.0 76:1.0 78:1.0 99:1.0 
2.0 2:1.0 6:1.0 16:1.0 22:1.0 36:1.0 40:1.0 54:1.0 63:1.0 67:1.0 73:1.0 74:1.0 76:1.0 80:1.0 83:1.0 
2.0 4:1.0 10:1.0 17:1.0 20:1.0 37:1.0 40:1.0 48:1.0 63:1.0 67:1.0 73:1.0 74:1.0 76:1.0 80:1.0 83:1.0 
2.0 3:1.0 6:1.0 15:1.0 19:1.0 39:1.0 40:1.0 50:1.0 63:1.0 67:1.0 73:1.0 74:1.0 76:1.0 82:1.0 83:1.0 
2.0 2:1.0 7:1.0 17:1.0 22:1.0 36:1.0 40:1.0 48:1.0 63:1.0 67:1.0 73:1.0 74:1.0 76:1.0 80:1.0 83:1.0 
2.0 2:1.0 6:1.0 15:1.0 20:1.0 37:1.0 40:1.0 51:1.0 63:1.0 67:1.0 73:1.0 74:1.0 76:1.0 80:1.0 83:1.0 
2.0 3:1.0 6:1.0 17:1.0 19:1.0 39:1.0 40:1.0 52:1.0 63:1.0 67:1.0 73:1.0 74:1.0 76:1.0 80:1.0 83:1.0 
2.0 1:1.0 6:1.0 18:1.0 27:1.0 35:1.0 42:1.0 49:1.0 64:1.0 67:1.0 73:1.0 74:1.0 76:1.0 82:1.0 83:1.0 
2.0 4:1.0 6:1.0 14:1.0 20:1.0 37:1.0 40:1.0 50:1.0 63:1.0 67:1.0 73:1.0 74:1.0 76:1.0 81:1.0 83:1.0 
2.0 3:1.0 6:1.0 15:1.0 19:1.0 39:1.0 40:1.0 54:1.0 63:1.0 67:1.0 73:1.0 74:1.0 76:1.0 82:1.0 83:1.0 
2.0 3:1.0 6:1.0 17:1.0 23:1.0 39:1.0 43:1.0 52:1.0 64:1.0 67:1.0 73:1.0 74:1.0 76:1.0 79:1.0 83:1.0 
2.0 2:1.0 9:1.0 18:1.0 19:1.0 39:1.0 40:1.0 51:1.0 63:1.0 67:1.0 73:1.0 74:1.0 76:1.0 80:1.0 83:1.0 
2.0 2:1.0 6:1.0 17:1.0 19:1.0 39:1.0 40:1.0 51:1.0 63:1.0 67:1.0 73:1.0 74:1.0 76:1.0 80:1.0 83:1.0 
2.0 4:1.0 6:1.0 16:1.0 22:1.0 36:1.0 40:1.0 57:1.0 63:1.0 67:1.0 73:1.0 74:1.0 76:1.0 82:1.0 83:1.0 
2.0 4:1.0 7:1.0 16:1.0 20:1.0 37:1.0 40:1.0 48:1.0 63:1.0 67:1.0 73:1.0 74:1.0 77:1.0 80:1.0 83:1.0 
2.0 4:1.0 7:1.0 14:1.0 22:1.0 36:1.0 40:1.0 51:1.0 63:1.0 67:1.0 73:1.0 74:1.0 76:1.0 80:1.0 83:1.0 
2.0 2:1.0 6:1.0 16:1.0 19:1.0 39:1.0 46:1.0 51:1.0 61:1.0 67:1.0 72:1.0 74:1.0 76:1.0 80:1.0 83:1.0 
2.0 4:1.0 6:1.0 15:1.0 25:1.0 38:1.0 40:1.0 55:1.0 61:1.0 67:1.0 72:1.0 74:1.0 76:1.0 80:1.0 83:1.0 
2.0 5:1.0 7:1.0 16:1.0 22:1.0 36:1.0 42:1.0 56:1.0 64:1.0 67:1.0 73:1.0 75:1.0 76:1.0 80:1.0 83:1.0 
2.0 3:1.0 9:1.0 16:1.0 23:1.0 39:1.0 42:1.0 52:1.0 64:1.0 67:1.0 72:1.0 74:1.0 76:1.0 82:1.0 83:1.0 
2.0 2:1.0 7:1.0 16:1.0 22:1.0 36:1.0 40:1.0 57:1.0 63:1.0 67:1.0 73:1.0 75:1.0 76:1.0 80:1.0 83:1.0 
0.09725875885713653 5:1.0 14:1.0 23:1.0 39:1.0 40:1.0 63:1.0 67:1.0 73:1.0 75:1.0 76:1.0 78:1.0 83:1.0 
2.0 4:1.0 7:1.0 14:1.0 29:1.0 39:1.0 40:1.0 56:1.0 63:1.0 67:1.0 73:1.0 74:1.0 76:1.0 80:1.0 83:1.0 
2.0 2:1.0 6:1.0 17:1.0 22:1.0 36:1.0 40:1.0 54:1.0 63:1.0 67:1.0 73:1.0 74:1.0 76:1.0 82:1.0 83:1.0 
2.0 3:1.0 6:1.0 18:1.0 32:1.0 39:1.0 42:1.0 52:1.0 64:1.0 67:1.0 73:1.0 74:1.0 76:1.0 80:1.0 110:1.0 
2.0 4:1.0 6:1.0 16:1.0 32:1.0 39:1.0 42:1.0 52:1.0 64:1.0 67:1.0 73:1.0 74:1.0 76:1.0 79:1.0 83:1.0 
2.0 4:1.0 6:1.0 17:1.0 25:1.0 38:1.0 40:1.0 54:1.0 63:1.0 67:1.0 73:1.0 74:1.0 76:1.0 80:1.0 83:1.0 
2.0 5:1.0 6:1.0 14:1.0 19:1.0 39:1.0 40:1.0 50:1.0 63:1.0 67:1.0 73:1.0 75:1.0 76:1.0 78:1.0 83:1.0 
2.0 3:1.0 6:1.0 17:1.0 19:1.0 39:1.0 40:1.0 47:1.0 63:1.0 67:1.0 73:1.0 74:1.0 76:1.0 82:1.0 83:1.0 
2.0 3:1.0 6:1.0 16:1.0 20:1.0 37:1.0 40:1.0 51:1.0 63:1.0 67:1.0 73:1.0 74:1.0 76:1.0 82:1.0 83:1.0 
1.2602404754043146 5:1.0 11:1.0 17:1.0 32:1.0 39:1.0 40:1.0 52:1.0 63:1.0 67:1.0 73:1.0 74:1.0 76:1.0 82:1.0 112:1.0 
2.0 2:1.0 6:1.0 17:1.0 22:1.0 36:1.0 40:1.0 53:1.0 61:1.0 67:1.0 72:1.0 74:1.0 76:1.0 80:1.0 103:1.0 
2.0 5:1.0 7:1.0 14:1.0 23:1.0 39:1.0 40:1.0 52:1.0 63:1.0 67:1.0 73:1.0 74:1.0 76:1.0 82:1.0 85:1.0 
2.0 3:1.0 6:1.0 18:1.0 19:1.0 39:1.0 40:1.0 51:1.0 63:1.0 67:1.0 73:1.0 74:1.0 76:1.0 82:1.0 83:1.0 
2.0 4:1.0 10:1.0 15:1.0 29:1.0 39:1.0 41:1.0 52:1.0 66:1.0 71:1.0 72:1.0 75:1.0 76:1.0 80:1.0 83:1.0 
2.0 5:1.0 16:1.0 22:1.0 36:1.0 40:1.0 63:1.0 67:1.0 73:1.0 74:1.0 76:1.0 80:1.0 83:1.0 
2.0 2:1.0 10:1.0 17:1.0 22:1.0 36:1.0 40:1.0 59:1.0 63:1.0 67:1.0 73:1.0 74:1.0 76:1.0 81:1.0 83:1.0 
2.0 3:1.0 6:1.0 15:1.0 22:1.0 36:1.0 40:1.0 54:1.0 63:1.0 68:1.0 73:1.0 74:1.0 76:1.0 80:1.0 
2.0 4:1.0 6:1.0 16:1.0 22:1.0 36:1.0 40:1.0 54:1.0 63:1.0 67:1.0 73:1.0 74:1.0 76:1.0 81:1.0 83:1.0 
2.0 4:1.0 6:1.0 14:1.0 22:1.0 36:1.0 40:1.0 53:1.0 63:1.0 67:1.0 73:1.0 74:1.0 76:1.0 82:1.0 83:1.0 
2.0 5:1.0 6:1.0 16:1.0 22:1.0 36:1.0 40:1.0 48:1.0 63:1.0 67:1.0 73:1.0 74:1.0 76:1.0 80:1.0 83:1.0 
2.0 5:1.0 11:1.0 14:1.0 25:1.0 38:1.0 41:1.0 47:1.0 64:1.0 67:1.0 73:1.0 74:1.0 77:1.0 79:1.0 83:1.0 
2.0 4:1.0 11:1.0 15:1.0 22:1.0 36:1.0 41:1.0 55:1.0 66:1.0 67:1.0 72:1.0 74:1.0 76:1.0 82:1.0 83:1.0 
2.0 5:1.0 6:1.0 18:1.0 20:1.0 37:1.0 40:1.0 57:1.0 63:1.0 67:1.0 73:1.0 75:1.0 76:1.0 78:1.0 83:1.0 
2.0 4:1.0 10:1.0 17:1.0 22:1.0 36:1.0 40:1.0 54:1.0 63:1.0 71:1.0 73:1.0 74:1.0 76:1.0 80:1.0 83:1.0 
2.0 5:1.0 9:1.0 16:1.0 22:1.0 36:1.0 40:1.0 47:1.0 63:1.0 67:1.0 73:1.0 74:1.0 77:1.0 80:1.0 83:1.0 
2.0 4:1.0 6:1.0 16:1.0 22:1.0 36:1.0 40:1.0 54:1.0 63:1.0 67:1.0 73:1.0 74:1.0 76:1.0 80:1.0 83:1.0 
2.0 5:1.0 6:1.0 14:1.0 21:1.0 35:1.0 40:1.0 50:1.0 63:1.0 67:1.0 73:1.0 75:1.0 76:1.0 78:1.0 83:1.0 
2.0 3:1.0 7:1.0 14:1.0 22:1.0 36:1.0 41:1.0 56:1.0 64:1.0 67:1.0 73:1.0 75:1.0 76:1.0 80:1.0 83:1.0 
2.0 3:1.0 11:1.0 14:1.0 22:1.0 36:1.0 40:1.0 54:1.0 63:1.0 67:1.0 73:1.0 74:1.0 76:1.0 80:1.0 83:1.0 
2.0 5:1.0 6:1.0 15:1.0 22:1.0 36:1.0 40:1.0 48:1.0 63:1.0 67:1.0 73:1.0 74:1.0 76:1.0 82:1.0 83:1.0 
2.0 3:1.0 6:1.0 14:1.0 24:1.0 38:1.0 40:1.0 51:1.0 63:1.0 67:1.0 73:1.0 74:1.0 76:1.0 80:1.0 83:1.0 
2.0 3:1.0 10:1.0 14:1.0 20:1.0 37:1.0 40:1.0 55:1.0 61:1.0 67:1.0 72:1.0 74:1.0 76:1.0 80:1.0 83:1.0 
2.0 4:1.0 6:1.0 15:1.0 25:1.0 38:1.0 40:1.0 56:1.0 63:1.0 67:1.0 73:1.0 74:1.0 76:1.0 80:1.0 83:1.0 
2.0 4:1.0 6:1.0 18:1.0 20:1.0 37:1.0 40:1.0 50:1.0 63:1.0 67:1.0 73:1.0 74:1.0 76:1.0 81:1.0 83:1.0 
2.0 2:1.0 6:1.0 16:1.0 20:1.0 37:1.0 40:1.0 57:1.0 63:1.0 67:1.0 73:1.0 74:1.0 76:1.0 82:1.0 83:1.0 
2.0 4:1.0 10:1.0 15:1.0 20:1.0 37:1.0 40:1.0 59:1.0 63:1.0 67:1.0 73:1.0 74:1.0 76:1.0 80:1.0 83:1.0 
2.0 5:1.0 6:1.0 18:1.0 22:1.0 36:1.0 40:1.0 48:1.0 63:1.0 67:1.0 73:1.0 74:1.0 76:1.0 79:1.0 83:1.0 
2.0 3:1.0 6:1.0 18:1.0 22:1.0 36:1.0 41:1.0 51:1.0 66:1.0 67:1.0 72:1.0 74:1.0 76:1.0 80:1.0 83:1.0 
2.0 2:1.0 6:1.0 17:1.0 22:1.0 36:1.0 40:1.0 57:1.0 63:1.0 67:1.0 73:1.0 74:1.0 76:1.0 82:1.0 83:1.0 
2.0 3:1.0 10:1.0 16:1.0 26:1.0 35:1.0 40:1.0 49:1.0 61:1.0 67:1.0 72:1.0 74:1.0 76:1.0 80:1.0 118:1.0 
2.0 5:1.0 7:1.0 15:1.0 22:1.0 36:1.0 41:1.0 51:1.0 64:1.0 67:1.0 72:1.0 75:1.0 76:1.0 79:1.0 83:1.0 
2.0 4:1.0 6:1.0 16:1.0 20:1.0 37:1.0 40:1.0 50:1.0 63:1.0 67:1.0 73:1.0 74:1.0 76:1.0 80:1.0 83:1.0 
2.0 2:1.0 6:1.0 16:1.0 20:1.0 37:1.0 40:1.0 53:1.0 63:1.0 67:1.0 73:1.0 74:1.0 76:1.0 80:1.0 83:1.0 
2.0 3:1.0 6:1.0 17:1.0 19:1.0 39:1.0 40:1.0 47:1.0 63:1.0 67:1.0 73:1.0 74:1.0 76:1.0 80:1.0 83:1.0 
2.0 3:1.0 10:1.0 17:1.0 24:1.0 38:1.0 40:1.0 51:1.0 63:1.0 67:1.0 73:1.0 74:1.0 76:1.0 80:1.0 83:1.0 
2.0 3:1.0 6:1.0 16:1.0 25:1.0 38:1.0 40:1.0 48:1.0 63:1.0 67:1.0 73:1.0 75:1.0 76:1.0 80:1.0 83:1.0 
1.7027084173937987 5:1.0 7:1.0 15:1.0 23:1.0 39:1.0 40:1.0 52:1.0 63:1.0 67:1.0 73:1.0 74:1.0 76:1.0 82:1.0 83:1.0 
2.0 2:1.0 6:1.0 15:1.0 19:1.0 39:1.0 40:1.0 52:1.0 61:1.0 67:1.0 72:1.0 74:1.0 77:1.0 78:1.0 83:1.0 
2.0 5:1.0 6:1.0 14:1.0 19:1.0 39:1.0 42:1.0 49:1.0 64:1.0 68:1.0 72:1.0 74:1.0 76:1.0 78:1.0 91:1.0 
2.0 5:1.0 6:1.0 17:1.0 22:1.0 36:1.0 40:1.0 51:1.0 63:1.0 67:1.0 73:1.0 74:1.0 76:1.0 82:1.0 83:1.0 
2.0 3:1.0 6:1.0 15:1.0 22:1.0 36:1.0 40:1.0 54:1.0 61:1.0 67:1.0 72:1.0 74:1.0 76:1.0 81:1.0 83:1.0 
2.0 2:1.0 6:1.0 15:1.0 29:1.0 39:1.0 43:1.0 51:1.0 64:1.0 67:1.0 73:1.0 74:1.0 77:1.0 82:1.0 83:1.0 
2.0 2:1.0 6:1.0 15:1.0 23:1.0 39:1.0 40:1.0 52:1.0 61:1.0 67:1.0 72:1.0 74:1.0 76:1.0 82:1.0 83:1.0 
2.0 5:1.0 6:1.0 16:1.0 22:1.0 36:1.0 40:1.0 57:1.0 63:1.0 67:1.0 73:1.0 74:1.0 77:1.0 82:1.0 83:1.0 
2.0 4:1.0 9:1.0 14:1.0 22:1.0 36:1.0 40:1.0 55:1.0 63:1.0 67:1.0 73:1.0 74:1.0 76:1.0 80:1.0 83:1.0 
2.0 3:1.0 9:1.0 15:1.0 22:1.0 36:1.0 40:1.0 55:1.0 63:1.0 67:1.0 73:1.0 74:1.0 76:1.0 80:1.0 83:1.0 
2.0 3:1.0 6:1.0 17:1.0 22:1.0 36:1.0 40:1.0 51:1.0 63:1.0 67:1.0 73:1.0 74:1.0 76:1.0 81:1.0 83:1.0 
2.0 4:1.0 10:1.0 17:1.0 19:1.0 39:1.0 41:1.0 59:1.0 64:1.0 71:1.0 73:1.0 74:1.0 76:1.0 82:1.0 83:1.0 
1.7657288756991825 5:1.0 8:1.0 14:1.0 22:1.0 36:1.0 40:1.0 51:1.0 63:1.0 67:1.0 73:1.0 75:1.0 76:1.0 82:1.0 83:1.0 
2.0 3:1.0 10:1.0 16:1.0 20:1.0 37:1.0 40:1.0 59:1.0 63:1.0 67:1.0 73:1.0 74:1.0 76:1.0 82:1.0 83:1.0 
2.0 5:1.0 6:1.0 15:1.0 19:1.0 39:1.0 42:1.0 55:1.0 64:1.0 67:1.0 72:1.0 75:1.0 76:1.0 80:1.0 83:1.0 
2.0 3:1.0 6:1.0 14:1.0 23:1.0 39:1.0 42:1.0 52:1.0 64:1.0 67:1.0 72:1.0 75:1.0 76:1.0 82:1.0 83:1.0 
2.0 4:1.0 9:1.0 17:1.0 20:1.0 37:1.0 40:1.0 53:1.0 63:1.0 67:1.0 73:1.0 74:1.0 76:1.0 80:1.0 83:1.0 
2.0 3:1.0 6:1.0 16:1.0 20:1.0 37:1.0 40:1.0 54:1.0 63:1.0 68:1.0 73:1.0 74:1.0 76:1.0 82:1.0 83:1.0 
1.186846228498811 4:1.0 6:1.0 18:1.0 25:1.0 38:1.0 40:1.0 52:1.0 63:1.0 67:1.0 73:1.0 74:1.0 77:1.0 81:1.0 83:1.0 
2.0 4:1.0 9:1.0 15:1.0 20:1.0 37:1.0 40:1.0 48:1.0 63:1.0 67:1.0 73:1.0 74:1.0 76:1.0 80:1.0 83:1.0 
2.0 5:1.0 11:1.0 18:1.0 20:1.0 37:1.0 40:1.0 54:1.0 63:1.0 71:1.0 73:1.0 74:1.0 76:1.0 80:1.0 83:1.0 
2.0 3:1.0 6:1.0 17:1.0 25:1.0 38:1.0 42:1.0 51:1.0 64:1.0 67:1.0 73:1.0 74:1.0 76:1.0 82:1.0 83:1.0 
2.0 2:1.0 8:1.0 16:1.0 22:1.0 36:1.0 40:1.0 56:1.0 63:1.0 67:1.0 73:1.0 74:1.0 77:1.0 82:1.0 83:1.0 
2.0 3:1.0 6:1.0 17:1.0 22:1.0 36:1.0 40:1.0 48:1.0 63:1.0 67:1.0 73:1.0 75:1.0 76:1.0 80:1.0 83:1.0 
2.0 4:1.0 7:1.0 18:1.0 19:1.0 39:1.0 41:1.0 49:1.0 66:1.0 68:1.0 72:1.0 74:1.0 76:1.0 82:1.0 93:1.0 
2.0 5:1.0 6:1.0 18:1.0 19:1.0 39:1.0 40:1.0 50:1.0 63:1.0 67:1.0 73:1.0 74:1.0 76:1.0 82:1.0 83:1.0 
2.0 5:1.0 8:1.0 18:1.0 20:1.0 37:1.0 40:1.0 51:1.0 63:1.0 67:1.0 73:1.0 74:1.0 76:1.0 80:1.0 83:1.0 
2.0 3:1.0 7:1.0 17:1.0 32:1.0 39:1.0 42:1.0 52:1.0 64:1.0 67:1.0 73:1.0 74:1.0 76:1.0 81:1.0 83:1.0 
2.0 2:1.0 6:1.0 15:1.0 19:1.0 39:1.0 40:1.0 52:1.0 61:1.0 67:1.0 72:1.0 74:1.0 77:1.0 78:1.0 83:1.0 
2.0 4:1.0 6:1.0 16:1.0 22:1.0 36:1.0 40:1.0 55:1.0 63:1.0 67:1.0 73:1.0 74:1.0 76:1.0 82:1.0 83:1.0 
2.0 2:1.0 6:1.0 15:1.0 22:1.0 36:1.0 40:1.0 48:1.0 63:1.0 67:1.0 73:1.0 74:1.0 76:1.0 80:1.0 83:1.0 
1.3178959329371507 2:1.0 7:1.0 18:1.0 19:1.0 39:1.0 40:1.0 51:1.0 61:1.0 67:1.0 72:1.0 74:1.0 77:1.0 80:1.0 83:1.0 
2.0 3:1.0 6:1.0 16:1.0 24:1.0 38:1.0 40:1.0 50:1.0 63:1.0 67:1.0 73:1.0 74:1.0 76:1.0 82:1.0 83:1.0 
2.0 4:1.0 6:1.0 17:1.0 22:1.0 36:1.0 40:1.0 48:1.0 63:1.0 67:1.0 73:1.0 74:1.0 76:1.0 80:1.0 
2.0 4:1.0 6:1.0 14:1.0 19:1.0 39:1.0 40:1.0 52:1.0 63:1.0 67:1.0 73:1.0 74:1.0 76:1.0 80:1.0 83:1.0 
2.0 4:1.0 8:1.0 15:1.0 20:1.0 37:1.0 40:1.0 52:1.0 61:1.0 67:1.0 72:1.0 74:1.0 76:1.0 80:1.0 
2.0 4:1.0 6:1.0 17:1.0 22:1.0 36:1.0 40:1.0 51:1.0 61:1.0 67:1.0 72:1.0 74:1.0 76:1.0 80:1.0 83:1.0 
2.0 2:1.0 6:1.0 16:1.0 19:1.0 39:1.0 42:1.0 52:1.0 62:1.0 67:1.0 72:1.0 74:1.0 77:1.0 80:1.0 83:1.0 
2.0 3:1.0 6:1.0 15:1.0 25:1.0 38:1.0 41:1.0 48:1.0 66:1.0 67:1.0 73:1.0 74:1.0 76:1.0 82:1.0 83:1.0 
2.0 4:1.0 10:1.0 16:1.0 29:1.0 39:1.0 40:1.0 52:1.0 63:1.0 67:1.0 73:1.0 74:1.0 76:1.0 82:1.0 83:1.0 
2.0 2:1.0 8:1.0 17:1.0 22:1.0 36:1.0 40:1.0 50:1.0 63:1.0 71:1.0 73:1.0 75:1.0 76:1.0 80:1.0 83:1.0 
2.0 4:1.0 8:1.0 14:1.0 24:1.0 38:1.0 40:1.0 52:1.0 63:1.0 67:1.0 73:1.0 74:1.0 76:1.0 82:1.0 83:1.0 
2.0 1:1.0 6:1.0 15:1.0 21:1.0 35:1.0 40:1.0 57:1.0 63:1.0 67:1.0 73:1.0 75:1.0 76:1.0 80:1.0 100:1.0 
2.0 4:1.0 11:1.0 17:1.0 32:1.0 39:1.0 43:1.0 52:1.0 66:1.0 67:1.0 72:1.0 74:1.0 76:1.0 80:1.0 83:1.0 
2.0 4:1.0 9:1.0 18:1.0 20:1.0 37:1.0 40:1.0 51:1.0 63:1.0 71:1.0 73:1.0 74:1.0 76:1.0 80:1.0 83:1.0 
2.0 3:1.0 6:1.0 14:1.0 19:1.0 39:1.0 41:1.0 51:1.0 66:1.0 67:1.0 72:1.0 74:1.0 76:1.0 82:1.0 83:1.0 
2.0 5:1.0 6:1.0 15:1.0 22:1.0 36:1.0 40:1.0 48:1.0 63:1.0 67:1.0 73:1.0 74:1.0 76:1.0 80:1.0 83:1.0 
2.0 5:1.0 6:1.0 18:1.0 19:1.0 39:1.0 40:1.0 51:1.0 63:1.0 67:1.0 73:1.0 74:1.0 76:1.0 80:1.0 83:1.0 
2.0 2:1.0 6:1.0 18:1.0 19:1.0 39:1.0 41:1.0 51:1.0 64:1.0 67:1.0 72:1.0 74:1.0 76:1.0 82:1.0 83:1.0 
2.0 5:1.0 7:1.0 14:1.0 19:1.0 39:1.0 40:1.0 51:1.0 63:1.0 67:1.0 73:1.0 74:1.0 76:1.0 82:1.0 83:1.0 
2.0 3:1.0 6:1.0 16:1.0 29:1.0 39:1.0 42:1.0 55:1.0 64:1.0 67:1.0 73:1.0 75:1.0 76:1.0 82:1.0 83:1.0 
2.0 2:1.0 6:1.0 17:1.0 22:1.0 36:1.0 40:1.0 48:1.0 63:1.0 67:1.0 73:1.0 74:1.0 76:1.0 80:1.0 83:1.0 
2.0 4:1.0 6:1.0 15:1.0 25:1.0 38:1.0 40:1.0 47:1.0 61:1.0 67:1.0 72:1.0 74:1.0 77:1.0 78:1.0 83:1.0 
2.0 5:1.0 8:1.0 15:1.0 20:1.0 37:1.0 40:1.0 50:1.0 63:1.0 67:1.0 73:1.0 74:1.0 77:1.0 79:1.0 83:1.0 
2.0 5:1.0 6:1.0 14:1.0 22:1.0 36:1.0 40:1.0 47:1.0 63:1.0 67:1.0 73:1.0 74:1.0 76:1.0 80:1.0 83:1.0 
2.0 5:1.0 6:1.0 17:1.0 20:1.0 37:1.0 40:1.0 59:1.0 63:1.0 71:1.0 73:1.0 74:1.0 76:1.0 82:1.0 83:1.0 
2.0 4:1.0 10:1.0 16:1.0 29:1.0 39:1.0 41:1.0 59:1.0 64:1.0 71:1.0 73:1.0 74:1.0 76:1.0 82:1.0 83:1.0 
2.0 4:1.0 6:1.0 17:1.0 19:1.0 39:1.0 40:1.0 52:1.0 61:1.0 67:1.0 72:1.0 74:1.0 76:1.0 78:1.0 95:1.0 
2.0 5:1.0 6:1.0 16:1.0 22:1.0 36:1.0 44:1.0 51:1.0 66:1.0 67:1.0 73:1.0 74:1.0 76:1.0 79:1.0 83:1.0 
1.210418377357234 3:1.0 6:1.0 17:1.0 25:1.0 38:1.0 40:1.0 48:1.0 63:1.0 67:1.0 73:1.0 75:1.0 76:1.0 81:1.0 83:1.0 
2.0 3:1.0 6:1.0 18:1.0 29:1.0 39:1.0 42:1.0 55:1.0 64:1.0 67:1.0 72:1.0 74:1.0 76:1.0 82:1.0 99:1.0 
2.0 4:1.0 11:1.0 15:1.0 22:1.0 36:1.0 42:1.0 57:1.0 64:1.0 67:1.0 72:1.0 75:1.0 76:1.0 80:1.0 83:1.0 
2.0 3:1.0 6:1.0 18:1.0 25:1.0 38:1.0 40:1.0 57:1.0 63:1.0 67:1.0 73:1.0 75:1.0 76:1.0 82:1.0 83:1.0 
2.0 4:1.0 6:1.0 14:1.0 19:1.0 39:1.0 40:1.0 48:1.0 63:1.0 67:1.0 73:1.0 74:1.0 76:1.0 81:1.0 83:1.0 
2.0 5:1.0 7:1.0 16:1.0 23:1.0 39:1.0 40:1.0 52:1.0 63:1.0 67:1.0 73:1.0 74:1.0 76:1.0 78:1.0 83:1.0 
2.0 5:1.0 7:1.0 14:1.0 22:1.0 36:1.0 40:1.0 56:1.0 63:1.0 67:1.0 73:1.0 74:1.0 76:1.0 82:1.0 83:1.0 
2.0 3:1.0 6:1.0 16:1.0 19:1.0 39:1.0 40:1.0 50:1.0 61:1.0 67:1.0 72:1.0 74:1.0 76:1.0 79:1.0 83:1.0 
2.0 4:1.0 6:1.0 15:1.0 22:1.0 36:1.0 40:1.0 53:1.0 63:1.0 67:1.0 73:1.0 74:1.0 76:1.0 80:1.0 83:1.0 
2.0 5:1.0 6:1.0 17:1.0 20:1.0 37:1.0 40:1.0 55:1.0 63:1.0 67:1.0 73:1.0 74:1.0 76:1.0 81:1.0 83:1.0 
1.6488199723225399 5:1.0 10:1.0 15:1.0 22:1.0 36:1.0 40:1.0 51:1.0 63:1.0 67:1.0 73:1.0 75:1.0 76:1.0 80:1.0 83:1.0 
2.0 5:1.0 8:1.0 16:1.0 20:1.0 37:1.0 40:1.0 57:1.0 63:1.0 67:1.0 73:1.0 74:1.0 76:1.0 80:1.0 83:1.0 
2.0 4:1.0 6:1.0 18:1.0 20:1.0 37:1.0 40:1.0 48:1.0 63:1.0 71:1.0 73:1.0 74:1.0 76:1.0 81:1.0 83:1.0 
2.0 3:1.0 7:1.0 18:1.0 20:1.0 37:1.0 40:1.0 52:1.0 61:1.0 67:1.0 72:1.0 74:1.0 76:1.0 82:1.0 83:1.0 
2.0 5:1.0 10:1.0 15:1.0 22:1.0 36:1.0 40:1.0 55:1.0 61:1.0 67:1.0 72:1.0 75:1.0 76:1.0 78:1.0 83:1.0 
2.0 4:1.0 11:1.0 17:1.0 19:1.0 39:1.0 40:1.0 51:1.0 63:1.0 71:1.0 73:1.0 74:1.0 76:1.0 80:1.0 83:1.0 
2.0 1:1.0 6:1.0 14:1.0 19:1.0 39:1.0 42:1.0 52:1.0 62:1.0 67:1.0 72:1.0 74:1.0 77:1.0 80:1.0 83:1.0 
2.0 2:1.0 6:1.0 16:1.0 21:1.0 35:1.0 40:1.0 53:1.0 63:1.0 67:1.0 73:1.0 75:1.0 76:1.0 80:1.0 83:1.0 
2.0 5:1.0 7:1.0 14:1.0 22:1.0 36:1.0 40:1.0 56:1.0 63:1.0 67:1.0 73:1.0 74:1.0 76:1.0 82:1.0 83:1.0 
2.0 5:1.0 14:1.0 22:1.0 36:1.0 40:1.0 63:1.0 67:1.0 73:1.0 74:1.0 76:1.0 78:1.0 83:1.0 
2.0 2:1.0 6:1.0 16:1.0 29:1.0 39:1.0 40:1.0 52:1.0 63:1.0 67:1.0 73:1.0 74:1.0 77:1.0 80:1.0 83:1.0 
2.0 5:1.0 6:1.0 14:1.0 31:1.0 35:1.0 40:1.0 50:1.0 61:1.0 68:1.0 72:1.0 74:1.0 76:1.0 78:1.0 91:1.0 
2.0 3:1.0 6:1.0 18:1.0 19:1.0 39:1.0 40:1.0 48:1.0 63:1.0 68:1.0 73:1.0 74:1.0 76:1.0 80:1.0 84:1.0 
2.0 4:1.0 7:1.0 14:1.0 19:1.0 39:1.0 40:1.0 56:1.0 63:1.0 67:1.0 73:1.0 74:1.0 76:1.0 82:1.0 83:1.0 
2.0 4:1.0 8:1.0 14:1.0 19:1.0 39:1.0 40:1.0 50:1.0 63:1.0 67:1.0 73:1.0 74:1.0 76:1.0 82:1.0 83:1.0 
2.0 3:1.0 6:1.0 15:1.0 19:1.0 39:1.0 40:1.0 50:1.0 63:1.0 67:1.0 73:1.0 74:1.0 76:1.0 82:1.0 83:1.0 
2.0 4:1.0 11:1.0 17:1.0 19:1.0 39:1.0 40:1.0 51:1.0 63:1.0 67:1.0 73:1.0 74:1.0 76:1.0 80:1.0 83:1.0 
2.0 3:1.0 10:1.0 18:1.0 19:1.0 39:1.0 40:1.0 55:1.0 63:1.0 67:1.0 73:1.0 74:1.0 76:1.0 80:1.0 83:1.0 
2.0 4:1.0 6:1.0 17:1.0 22:1.0 36:1.0 40:1.0 53:1.0 63:1.0 67:1.0 73:1.0 74:1.0 76:1.0 82:1.0 83:1.0 
1.5798716546093154 3:1.0 6:1.0 16:1.0 29:1.0 39:1.0 40:1.0 52:1.0 63:1.0 67:1.0 73:1.0 74:1.0 77:1.0 80:1.0 83:1.0 
2.0 4:1.0 6:1.0 18:1.0 24:1.0 38:1.0 40:1.0 50:1.0 63:1.0 67:1.0 73:1.0 74:1.0 76:1.0 82:1.0 83:1.0 
2.0 4:1.0 10:1.0 18:1.0 24:1.0 38:1.0 40:1.0 51:1.0 63:1.0 71:1.0 73:1.0 74:1.0 76:1.0 82:1.0 83:1.0 
2.0 5:1.0 6:1.0 17:1.0 22:1.0 36:1.0 40:1.0 54:1.0 63:1.0 67:1.0 73:1.0 74:1.0 76:1.0 80:1.0 83:1.0 
2.0 5:1.0 10:1.0 14:1.0 19:1.0 39:1.0 40:1.0 55:1.0 61:1.0 67:1.0 72:1.0 74:1.0 76:1.0 80:1.0 83:1.0 
2.0 3:1.0 6:1.0 14:1.0 19:1.0 39:1.0 40:1.0 51:1.0 63:1.0 67:1.0 73:1.0 74:1.0 76:1.0 80:1.0 83:1.0 
2.0 5:1.0 6:1.0 15:1.0 22:1.0 36:1.0 40:1.0 57:1.0 63:1.0 67:1.0 73:1.0 74:1.0 76:1.0 82:1.0 83:1.0 
2.0 5:1.0 8:1.0 14:1.0 19:1.0 39:1.0 40:1.0 56:1.0 63:1.0 67:1.0 73:1.0 74:1.0 77:1.0 82:1.0 83:1.0 
2.0 4:1.0 9:1.0 18:1.0 20:1.0 37:1.0 40:1.0 48:1.0 63:1.0 67:1.0 73:1.0 74:1.0 76:1.0 80:1.0 83:1.0 
2.0 2:1.0 6:1.0 16:1.0 19:1.0 39:1.0 42:1.0 51:1.0 64:1.0 67:1.0 72:1.0 74:1.0 76:1.0 81:1.0 83:1.0 
2.0 5:1.0 10:1.0 15:1.0 22:1.0 36:1.0 40:1.0 48:1.0 63:1.0 67:1.0 73:1.0 74:1.0 77:1.0 79:1.0 83:1.0 
2.0 2:1.0 6:1.0 14:1.0 19:1.0 39:1.0 40:1.0 50:1.0 63:1.0 67:1.0 73:1.0 74:1.0 76:1.0 82:1.0 83:1.0 
0.7783832220189598 5:1.0 10:1.0 17:1.0 23:1.0 39:1.0 40:1.0 55:1.0 63:1.0 68:1.0 73:1.0 74:1.0 76:1.0 80:1.0 98:1.0 
0.9460042113410578 5:1.0 11:1.0 17:1.0 32:1.0 39:1.0 40:1.0 52:1.0 63:1.0 67:1.0 73:1.0 74:1.0 76:1.0 80:1.0 83:1.0 
2.0 5:1.0 8:1.0 15:1.0 24:1.0 38:1.0 40:1.0 50:1.0 63:1.0 67:1.0 73:1.0 74:1.0 76:1.0 82:1.0 83:1.0 
2.0 4:1.0 6:1.0 14:1.0 25:1.0 38:1.0 40:1.0 48:1.0 63:1.0 67:1.0 73:1.0 74:1.0 76:1.0 80:1.0 87:1.0 
2.0 5:1.0 6:1.0 17:1.0 22:1.0 36:1.0 40:1.0 48:1.0 63:1.0 67:1.0 73:1.0 74:1.0 76:1.0 80:1.0 83:1.0 
2.0 5:1.0 6:1.0 14:1.0 19:1.0 39:1.0 40:1.0 51:1.0 63:1.0 67:1.0 73:1.0 74:1.0 76:1.0 80:1.0 83:1.0 
1.3477128193250567 5:1.0 8:1.0 18:1.0 19:1.0 39:1.0 40:1.0 54:1.0 63:1.0 68:1.0 73:1.0 75:1.0 76:1.0 80:1.0 
2.0 2:1.0 6:1.0 17:1.0 19:1.0 39:1.0 40:1.0 51:1.0 61:1.0 67:1.0 72:1.0 74:1.0 76:1.0 80:1.0 83:1.0 
2.0 5:1.0 8:1.0 17:1.0 20:1.0 37:1.0 40:1.0 51:1.0 63:1.0 67:1.0 73:1.0 74:1.0 76:1.0 80:1.0 83:1.0 
2.0 3:1.0 6:1.0 17:1.0 31:1.0 35:1.0 40:1.0 51:1.0 63:1.0 67:1.0 73:1.0 74:1.0 76:1.0 80:1.0 83:1.0 
1.1164927480525317 5:1.0 6:1.0 15:1.0 19:1.0 39:1.0 40:1.0 51:1.0 63:1.0 68:1.0 73:1.0 74:1.0 76:1.0 80:1.0 98:1.0 
2.0 5:1.0 6:1.0 15:1.0 20:1.0 37:1.0 40:1.0 48:1.0 63:1.0 67:1.0 73:1.0 75:1.0 76:1.0 82:1.0 83:1.0 
2.0 5:1.0 9:1.0 18:1.0 20:1.0 37:1.0 40:1.0 55:1.0 63:1.0 67:1.0 73:1.0 74:1.0 76:1.0 80:1.0 83:1.0 
2.0 3:1.0 6:1.0 14:1.0 20:1.0 37:1.0 40:1.0 48:1.0 63:1.0 67:1.0 73:1.0 74:1.0 76:1.0 80:1.0 83:1.0 
0.9734252497318195 5:1.0 6:1.0 18:1.0 25:1.0 38:1.0 40:1.0 52:1.0 63:1.0 67:1.0 73:1.0 75:1.0 76:1.0 80:1.0 83:1.0 
2.0 3:1.0 7:1.0 15:1.0 23:1.0 39:1.0 40:1.0 52:1.0 63:1.0 67:1.0 73:1.0 74:1.0 76:1.0 82:1.0 83:1.0 
2.0 3:1.0 18:1.0 19:1.0 39:1.0 40:1.0 61:1.0 67:1.0 72:1.0 74:1.0 76:1.0 78:1.0 83:1.0 
2.0 4:1.0 6:1.0 16:1.0 22:1.0 36:1.0 41:1.0 48:1.0 64:1.0 71:1.0 73:1.0 75:1.0 76:1.0 81:1.0 83:1.0 
2.0 2:1.0 6:1.0 14:1.0 19:1.0 39:1.0 40:1.0 51:1.0 63:1.0 67:1.0 73:1.0 74:1.0 76:1.0 80:1.0 83:1.0 
2.0 2:1.0 6:1.0 16:1.0 24:1.0 38:1.0 40:1.0 52:1.0 63:1.0 67:1.0 73:1.0 74:1.0 76:1.0 81:1.0 83:1.0 
2.0 2:1.0 6:1.0 15:1.0 19:1.0 39:1.0 40:1.0 52:1.0 63:1.0 67:1.0 73:1.0 74:1.0 77:1.0 80:1.0 83:1.0 
2.0 3:1.0 6:1.0 15:1.0 22:1.0 36:1.0 40:1.0 50:1.0 63:1.0 67:1.0 73:1.0 74:1.0 76:1.0 80:1.0 83:1.0 
2.0 4:1.0 6:1.0 18:1.0 20:1.0 37:1.0 40:1.0 52:1.0 63:1.0 67:1.0 73:1.0 75:1.0 76:1.0 80:1.0 83:1.0 
2.0 2:1.0 6:1.0 17:1.0 23:1.0 39:1.0 40:1.0 52:1.0 63:1.0 67:1.0 73:1.0 74:1.0 76:1.0 78:1.0 83:1.0 
2.0 4:1.0 6:1.0 16:1.0 22:1.0 36:1.0 40:1.0 50:1.0 63:1.0 67:1.0 73:1.0 74:1.0 76:1.0 82:1.0 83:1.0 
2.0 3:1.0 8:1.0 14:1.0 25:1.0 38:1.0 40:1.0 50:1.0 63:1.0 67:1.0 73:1.0 74:1.0 76:1.0 80:1.0 83:1.0 
2.0 4:1.0 6:1.0 15:1.0 32:1.0 39:1.0 42:1.0 52:1.0 64:1.0 67:1.0 73:1.0 75:1.0 76:1.0 78:1.0 83:1.0 
2.0 3:1.0 11:1.0 18:1.0 32:1.0 39:1.0 40:1.0 52:1.0 63:1.0 67:1.0 73:1.0 74:1.0 76:1.0 81:1.0 88:1.0 
0.18338876606722262 3:1.0 6:1.0 15:1.0 29:1.0 39:1.0 40:1.0 52:1.0 61:1.0 67:1.0 72:1.0 74:1.0 77:1.0 78:1.0 83:1.0 
2.0 5:1.0 7:1.0 17:1.0 20:1.0 37:1.0 40:1.0 57:1.0 63:1.0 67:1.0 73:1.0 74:1.0 76:1.0 81:1.0 83:1.0 
2.0 4:1.0 6:1.0 18:1.0 20:1.0 37:1.0 43:1.0 50:1.0 64:1.0 67:1.0 73:1.0 74:1.0 76:1.0 82:1.0 83:1.0 
2.0 4:1.0 6:1.0 14:1.0 22:1.0 36:1.0 40:1.0 48:1.0 63:1.0 67:1.0 73:1.0 74:1.0 77:1.0 80:1.0 83:1.0 
2.0 3:1.0 10:1.0 16:1.0 19:1.0 39:1.0 42:1.0 59:1.0 64:1.0 67:1.0 72:1.0 75:1.0 76:1.0 81:1.0 83:1.0 
2.0 3:1.0 11:1.0 14:1.0 20:1.0 37:1.0 40:1.0 51:1.0 61:1.0 67:1.0 72:1.0 75:1.0 76:1.0 79:1.0 83:1.0 
2.0 5:1.0 6:1.0 16:1.0 22:1.0 36:1.0 40:1.0 57:1.0 63:1.0 67:1.0 73:1.0 74:1.0 76:1.0 80:1.0 83:1.0 
2.0 4:1.0 6:1.0 17:1.0 25:1.0 38:1.0 40:1.0 52:1.0 63:1.0 67:1.0 73:1.0 74:1.0 76:1.0 80:1.0 83:1.0 
2.0 4:1.0 11:1.0 14:1.0 22:1.0 36:1.0 40:1.0 48:1.0 63:1.0 67:1.0 73:1.0 74:1.0 76:1.0 80:1.0 83:1.0 
0.5678775481116588 2:1.0 6:1.0 17:1.0 19:1.0 39:1.0 40:1.0 51:1.0 63:1.0 67:1.0 73:1.0 74:1.0 76:1.0 81:1.0 83:1.0 
2.0 5:1.0 8:1.0 16:1.0 19:1.0 39:1.0 40:1.0 50:1.0 63:1.0 67:1.0 73:1.0 74:1.0 76:1.0 78:1.0 83:1.0 
2.0 4:1.0 10:1.0 16:1.0 19:1.0 39:1.0 40:1.0 52:1.0 61:1.0 71:1.0 72:1.0 74:1.0 76:1.0 80:1.0 83:1.0 
2.0 2:1.0 7:1.0 14:1.0 22:1.0 36:1.0 40:1.0 56:1.0 63:1.0 67:1.0 73:1.0 74:1.0 76:1.0 82:1.0 83:1.0 
2.0 4:1.0 6:1.0 16:1.0 22:1.0 36:1.0 40:1.0 55:1.0 61:1.0 67:1.0 72:1.0 74:1.0 76:1.0 80:1.0 83:1.0 
2.0 2:1.0 6:1.0 14:1.0 22:1.0 36:1.0 40:1.0 52:1.0 63:1.0 67:1.0 73:1.0 74:1.0 76:1.0 79:1.0 83:1.0 
2.0 2:1.0 9:1.0 18:1.0 29:1.0 39:1.0 40:1.0 52:1.0 63:1.0 67:1.0 73:1.0 74:1.0 76:1.0 80:1.0 83:1.0 
2.0 3:1.0 11:1.0 16:1.0 22:1.0 36:1.0 40:1.0 48:1.0 63:1.0 67:1.0 73:1.0 74:1.0 77:1.0 80:1.0 83:1.0 
2.0 4:1.0 7:1.0 16:1.0 22:1.0 36:1.0 40:1.0 56:1.0 63:1.0 67:1.0 73:1.0 74:1.0 76:1.0 82:1.0 83:1.0 
2.0 5:1.0 8:1.0 15:1.0 25:1.0 38:1.0 40:1.0 51:1.0 63:1.0 67:1.0 73:1.0 74:1.0 76:1.0 80:1.0 92:1.0 
2.0 3:1.0 6:1.0 18:1.0 22:1.0 36:1.0 40:1.0 51:1.0 63:1.0 67:1.0 73:1.0 75:1.0 76:1.0 82:1.0 83:1.0 
2.0 2:1.0 10:1.0 17:1.0 22:1.0 36:1.0 40:1.0 59:1.0 63:1.0 67:1.0 73:1.0 74:1.0 76:1.0 80:1.0 83:1.0 
2.0 2:1.0 6:1.0 18:1.0 22:1.0 36:1.0 40:1.0 51:1.0 63:1.0 67:1.0 73:1.0 74:1.0 76:1.0 80:1.0 83:1.0 
2.0 5:1.0 6:1.0 14:1.0 29:1.0 39:1.0 40:1.0 52:1.0 63:1.0 68:1.0 73:1.0 74:1.0 76:1.0 81:1.0 90:1.0 
2.0 3:1.0 6:1.0 18:1.0 29:1.0 39:1.0 42:1.0 51:1.0 64:1.0 71:1.0 72:1.0 74:1.0 76:1.0 80:1.0 83:1.0 
2.0 5:1.0 9:1.0 14:1.0 22:1.0 36:1.0 40:1.0 55:1.0 63:1.0 67:1.0 73:1.0 74:1.0 76:1.0 80:1.0 83:1.0 
2.0 3:1.0 6:1.0 18:1.0 19:1.0 39:1.0 40:1.0 50:1.0 63:1.0 67:1.0 73:1.0 74:1.0 76:1.0 80:1.0 83:1.0 
2.0 5:1.0 6:1.0 16:1.0 19:1.0 39:1.0 40:1.0 47:1.0 63:1.0 67:1.0 73:1.0 74:1.0 76:1.0 82:1.0 83:1.0 
2.0 3:1.0 6:1.0 15:1.0 22:1.0 36:1.0 40:1.0 50:1.0 63:1.0 67:1.0 73:1.0 74:1.0 77:1.0 80:1.0 83:1.0 
2.0 4:1.0 6:1.0 16:1.0 19:1.0 39:1.0 43:1.0 51:1.0 66:1.0 67:1.0 73:1.0 75:1.0 76:1.0 80:1.0 83:1.0 
2.0 4:1.0 7:1.0 18:1.0 20:1.0 37:1.0 40:1.0 48:1.0 63:1.0 67:1.0 73:1.0 74:1.0 77:1.0 82:1.0 83:1.0 
2.0 5:1.0 10:1.0 17:1.0 19:1.0 39:1.0 44:1.0 52:1.0 66:1.0 67:1.0 72:1.0 74:1.0 76:1.0 82:1.0 83:1.0 
2.0 4:1.0 6:1.0 17:1.0 20:1.0 37:1.0 40:1.0 52:1.0 63:1.0 67:1.0 73:1.0 74:1.0 76:1.0 80:1.0 83:1.0 
1.5567516125974206 5:1.0 6:1.0 14:1.0 29:1.0 39:1.0 40:1.0 52:1.0 63:1.0 67:1.0 73:1.0 74:1.0 76:1.0 79:1.0 87:1.0 
2.0 2:1.0 7:1.0 15:1.0 19:1.0 39:1.0 40:1.0 54:1.0 63:1.0 67:1.0 73:1.0 74:1.0 76:1.0 82:1.0 83:1.0 
2.0 5:1.0 7:1.0 18:1.0 24:1.0 38:1.0 40:1.0 51:1.0 61:1.0 67:1.0 72:1.0 75:1.0 76:1.0 78:1.0 83:1.0 
2.0 2:1.0 10:1.0 15:1.0 22:1.0 36:1.0 40:1.0 51:1.0 63:1.0 67:1.0 73:1.0 74:1.0 76:1.0 82:1.0 83:1.0 
2.0 4:1.0 6:1.0 18:1.0 19:1.0 39:1.0 42:1.0 50:1.0 64:1.0 67:1.0 73:1.0 74:1.0 76:1.0 82:1.0 83:1.0 
2.0 3:1.0 6:1.0 18:1.0 22:1.0 36:1.0 40:1.0 48:1.0 63:1.0 67:1.0 73:1.0 74:1.0 76:1.0 80:1.0 83:1.0 
2.0 4:1.0 10:1.0 16:1.0 19:1.0 39:1.0 40:1.0 48:1.0 63:1.0 67:1.0 73:1.0 74:1.0 76:1.0 79:1.0 83:1.0 
2.0 3:1.0 6:1.0 15:1.0 20:1.0 37:1.0 41:1.0 51:1.0 64:1.0 67:1.0 72:1.0 74:1.0 76:1.0 80:1.0 83:1.0 
1.3229201472940235 2:1.0 8:1.0 14:1.0 19:1.0 39:1.0 40:1.0 50:1.0 63:1.0 67:1.0 73:1.0 75:1.0 76:1.0 82:1.0 83:1.0 
2.0 2:1.0 8:1.0 16:1.0 22:1.0 36:1.0 41:1.0 51:1.0 64:1.0 67:1.0 73:1.0 74:1.0 76:1.0 82:1.0 83:1.0 
0.5275712218006842 4:1.0 10:1.0 17:1.0 29:1.0 39:1.0 40:1.0 55:1.0 63:1.0 67:1.0 73:1.0 74:1.0 76:1.0 80:1.0 99:1.0 
2.0 3:1.0 6:1.0 17:1.0 22:1.0 36:1.0 41:1.0 52:1.0 62:1.0 67:1.0 72:1.0 74:1.0 76:1.0 80:1.0 83:1.0 
1.3417141242396313 2:1.0 6:1.0 15:1.0 29:1.0 39:1.0 40:1.0 51:1.0 63:1.0 67:1.0 73:1.0 74:1.0 76:1.0 81:1.0 83:1.0 
2.0 4:1.0 6:1.0 17:1.0 22:1.0 36:1.0 40:1.0 48:1.0 63:1.0 67:1.0 73:1.0 74:1.0 76:1.0 82:1.0 83:1.0 
2.0 1:1.0 6:1.0 18:1.0 20:1.0 37:1.0 40:1.0 55:1.0 63:1.0 67:1.0 73:1.0 74:1.0 76:1.0 80:1.0 83:1.0 
2.0 5:1.0 11:1.0 15:1.0 22:1.0 36:1.0 40:1.0 51:1.0 63:1.0 67:1.0 73:1.0 74:1.0 77:1.0 80:1.0 83:1.0 
2.0 5:1.0 6:1.0 16:1.0 22:1.0 36:1.0 40:1.0 54:1.0 63:1.0 67:1.0 73:1.0 74:1.0 76:1.0 81:1.0 83:1.0 
2.0 5:1.0 6:1.0 15:1.0 31:1.0 35:1.0 40:1.0 48:1.0 63:1.0 67:1.0 73:1.0 75:1.0 76:1.0 80:1.0 83:1.0 
2.0 3:1.0 10:1.0 14:1.0 19:1.0 39:1.0 40:1.0 52:1.0 61:1.0 67:1.0 72:1.0 74:1.0 76:1.0 81:1.0 83:1.0 
2.0 4:1.0 6:1.0 14:1.0 19:1.0 39:1.0 40:1.0 52:1.0 63:1.0 67:1.0 73:1.0 74:1.0 76:1.0 82:1.0 83:1.0 
2.0 3:1.0 6:1.0 17:1.0 19:1.0 39:1.0 40:1.0 55:1.0 63:1.0 67:1.0 73:1.0 74:1.0 76:1.0 82:1.0 83:1.0 
2.0 5:1.0 6:1.0 16:1.0 25:1.0 38:1.0 40:1.0 48:1.0 63:1.0 67:1.0 73:1.0 74:1.0 76:1.0 80:1.0 83:1.0 
2.0 5:1.0 7:1.0 14:1.0 20:1.0 37:1.0 40:1.0 51:1.0 63:1.0 67:1.0 73:1.0 74:1.0 76:1.0 82:1.0 83:1.0 
2.0 3:1.0 6:1.0 18:1.0 22:1.0 36:1.0 40:1.0 51:1.0 61:1.0 67:1.0 72:1.0 75:1.0 76:1.0 80:1.0 83:1.0 
2.0 3:1.0 6:1.0 15:1.0 22:1.0 36:1.0 40:1.0 52:1.0 63:1.0 67:1.0 73:1.0 74:1.0 76:1.0 81:1.0 109:1.0 
2.0 5:1.0 7:1.0 14:1.0 19:1.0 39:1.0 41:1.0 56:1.0 64:1.0 67:1.0 73:1.0 75:1.0 76:1.0 82:1.0 83:1.0 
2.0 5:1.0 6:1.0 16:1.0 22:1.0 36:1.0 40:1.0 53:1.0 63:1.0 67:1.0 73:1.0 74:1.0 76:1.0 80:1.0 83:1.0 
2.0 4:1.0 6:1.0 15:1.0 19:1.0 39:1.0 40:1.0 50:1.0 63:1.0 67:1.0 73:1.0 74:1.0 76:1.0 80:1.0 83:1.0 
2.0 4:1.0 10:1.0 15:1.0 20:1.0 37:1.0 40:1.0 59:1.0 63:1.0 67:1.0 73:1.0 74:1.0 76:1.0 80:1.0 83:1.0 
2.0 4:1.0 6:1.0 18:1.0 20:1.0 37:1.0 40:1.0 51:1.0 63:1.0 67:1.0 73:1.0 74:1.0 76:1.0 82:1.0 83:1.0 
2.0 5:1.0 7:1.0 18:1.0 19:1.0 39:1.0 40:1.0 52:1.0 63:1.0 67:1.0 73:1.0 74:1.0 76:1.0 81:1.0 83:1.0 
2.0 4:1.0 6:1.0 17:1.0 22:1.0 36:1.0 40:1.0 50:1.0 63:1.0 67:1.0 73:1.0 74:1.0 76:1.0 82:1.0 83:1.0 
2.0 3:1.0 11:1.0 16:1.0 19:1.0 39:1.0 40:1.0 59:1.0 63:1.0 67:1.0 73:1.0 75:1.0 76:1.0 82:1.0 83:1.0 
2.0 2:1.0 6:1.0 15:1.0 19:1.0 39:1.0 42:1.0 51:1.0 64:1.0 67:1.0 73:1.0 74:1.0 76:1.0 82:1.0 83:1.0 
2.0 5:1.0 18:1.0 22:1.0 36:1.0 40:1.0 63:1.0 67:1.0 73:1.0 74:1.0 76:1.0 80:1.0 83:1.0 
2.0 4:1.0 9:1.0 18:1.0 20:1.0 37:1.0 42:1.0 55:1.0 64:1.0 67:1.0 73:1.0 75:1.0 76:1.0 82:1.0 83:1.0 
2.0 4:1.0 8:1.0 15:1.0 20:1.0 37:1.0 40:1.0 51:1.0 63:1.0 67:1.0 73:1.0 74:1.0 76:1.0 82:1.0 83:1.0 
2.0 4:1.0 6:1.0 18:1.0 22:1.0 36:1.0 40:1.0 49:1.0 63:1.0 67:1.0 73:1.0 74:1.0 77:1.0 80:1.0 83:1.0 
2.0 4:1.0 8:1.0 14:1.0 29:1.0 39:1.0 40:1.0 50:1.0 63:1.0 67:1.0 73:1.0 74:1.0 76:1.0 82:1.0 
-2.0 3:1.0 11:1.0 14:1.0 19:1.0 39:1.0 42:1.0 55:1.0 64:1.0 67:1.0 73:1.0 75:1.0 76:1.0 80:1.0 83:1.0 
-2.0 4:1.0 6:1.0 15:1.0 21:1.0 35:1.0 40:1.0 57:1.0 63:1.0 67:1.0 73:1.0 74:1.0 77:1.0 80:1.0 83:1.0 
-2.0 2:1.0 6:1.0 16:1.0 22:1.0 36:1.0 40:1.0 54:1.0 63:1.0 67:1.0 73:1.0 75:1.0 76:1.0 80:1.0 83:1.0 
-2.0 5:1.0 6:1.0 15:1.0 20:1.0 37:1.0 40:1.0 50:1.0 63:1.0 67:1.0 73:1.0 75:1.0 76:1.0 80:1.0 83:1.0 
-2.0 5:1.0 7:1.0 16:1.0 29:1.0 39:1.0 40:1.0 48:1.0 63:1.0 67:1.0 73:1.0 74:1.0 76:1.0 78:1.0 83:1.0 
-2.0 2:1.0 6:1.0 15:1.0 19:1.0 39:1.0 40:1.0 52:1.0 63:1.0 67:1.0 73:1.0 74:1.0 76:1.0 82:1.0 83:1.0 
-2.0 5:1.0 8:1.0 14:1.0 19:1.0 39:1.0 40:1.0 50:1.0 63:1.0 67:1.0 73:1.0 74:1.0 76:1.0 82:1.0 83:1.0 
-0.1571073104843417 3:1.0 7:1.0 18:1.0 22:1.0 36:1.0 40:1.0 50:1.0 63:1.0 67:1.0 73:1.0 74:1.0 76:1.0 82:1.0 83:1.0 
-2.0 5:1.0 15:1.0 22:1.0 36:1.0 40:1.0 63:1.0 67:1.0 73:1.0 74:1.0 76:1.0 82:1.0 83:1.0 
-2.0 2:1.0 6:1.0 16:1.0 25:1.0 38:1.0 40:1.0 55:1.0 63:1.0 67:1.0 73:1.0 74:1.0 77:1.0 81:1.0 83:1.0 
-2.0 5:1.0 7:1.0 14:1.0 22:1.0 36:1.0 40:1.0 56:1.0 63:1.0 67:1.0 73:1.0 74:1.0 77:1.0 82:1.0 83:1.0 
-2.0 1:1.0 6:1.0 17:1.0 20:1.0 37:1.0 42:1.0 51:1.0 64:1.0 67:1.0 72:1.0 75:1.0 76:1.0 80:1.0 83:1.0 
-2.0 3:1.0 6:1.0 16:1.0 29:1.0 39:1.0 40:1.0 52:1.0 63:1.0 67:1.0 73:1.0 74:1.0 76:1.0 78:1.0 83:1.0 
-2.0 5:1.0 6:1.0 15:1.0 22:1.0 36:1.0 40:1.0 54:1.0 63:1.0 67:1.0 73:1.0 75:1.0 76:1.0 80:1.0 83:1.0 
-1.0322711181534918 2:1.0 6:1.0 15:1.0 19:1.0 39:1.0 42:1.0 50:1.0 64:1.0 71:1.0 72:1.0 74:1.0 77:1.0 80:1.0 83:1.0 
-2.0 4:1.0 6:1.0 18:1.0 25:1.0 38:1.0 40:1.0 57:1.0 63:1.0 67:1.0 73:1.0 74:1.0 76:1.0 82:1.0 83:1.0 
-2.0 4:1.0 6:1.0 17:1.0 22:1.0 36:1.0 40:1.0 57:1.0 63:1.0 67:1.0 73:1.0 74:1.0 76:1.0 82:1.0 83:1.0 
-2.0 5:1.0 7:1.0 17:1.0 20:1.0 37:1.0 40:1.0 50:1.0 63:1.0 67:1.0 73:1.0 74:1.0 76:1.0 82:1.0 83:1.0 
-2.0 5:1.0 6:1.0 18:1.0 22:1.0 36:1.0 40:1.0 48:1.0 63:1.0 67:1.0 73:1.0 74:1.0 76:1.0 82:1.0 83:1.0 
-2.0 4:1.0 6:1.0 16:1.0 22:1.0 36:1.0 40:1.0 48:1.0 63:1.0 67:1.0 73:1.0 74:1.0 76:1.0 80:1.0 83:1.0 
-0.62178134200247 5:1.0 6:1.0 14:1.0 20:1.0 37:1.0 40:1.0 48:1.0 63:1.0 67:1.0 73:1.0 74:1.0 76:1.0 80:1.0 83:1.0 
-2.0 4:1.0 7:1.0 16:1.0 20:1.0 37:1.0 40:1.0 56:1.0 63:1.0 67:1.0 73:1.0 74:1.0 76:1.0 82:1.0 83:1.0 
-2.0 3:1.0 11:1.0 14:1.0 20:1.0 37:1.0 40:1.0 51:1.0 63:1.0 67:1.0 73:1.0 74:1.0 76:1.0 80:1.0 83:1.0 
-2.0 3:1.0 6:1.0 14:1.0 20:1.0 37:1.0 40:1.0 48:1.0 63:1.0 67:1.0 73:1.0 74:1.0 77:1.0 81:1.0 83:1.0 
-2.0 4:1.0 10:1.0 15:1.0 29:1.0 39:1.0 41:1.0 52:1.0 64:1.0 67:1.0 72:1.0 74:1.0 76:1.0 78:1.0 83:1.0 
-2.0 2:1.0 9:1.0 16:1.0 24:1.0 38:1.0 40:1.0 55:1.0 63:1.0 67:1.0 73:1.0 74:1.0 76:1.0 82:1.0 83:1.0 
-0.6162925238207356 5:1.0 10:1.0 16:1.0 19:1.0 39:1.0 43:1.0 52:1.0 64:1.0 67:1.0 73:1.0 74:1.0 76:1.0 78:1.0 
-2.0 3:1.0 10:1.0 17:1.0 19:1.0 39:1.0 40:1.0 55:1.0 63:1.0 67:1.0 73:1.0 74:1.0 76:1.0 80:1.0 83:1.0 
-2.0 5:1.0 8:1.0 14:1.0 19:1.0 39:1.0 40:1.0 54:1.0 63:1.0 67:1.0 73:1.0 75:1.0 76:1.0 78:1.0 83:1.0 
-2.0 5:1.0 16:1.0 22:1.0 36:1.0 40:1.0 63:1.0 67:1.0 73:1.0 74:1.0 76:1.0 80:1.0 83:1.0 
-2.0 3:1.0 6:1.0 15:1.0 19:1.0 39:1.0 40:1.0 52:1.0 63:1.0 68:1.0 73:1.0 74:1.0 76:1.0 81:1.0 
-2.0 3:1.0 6:1.0 18:1.0 23:1.0 39:1.0 42:1.0 52:1.0 64:1.0 67:1.0 73:1.0 74:1.0 76:1.0 82:1.0 83:1.0 
-2.0 3:1.0 6:1.0 16:1.0 20:1.0 37:1.0 40:1.0 52:1.0 63:1.0 67:1.0 73:1.0 74:1.0 76:1.0 82:1.0 83:1.0 
-0.3695307949075726 3:1.0 6:1.0 15:1.0 21:1.0 35:1.0 40:1.0 48:1.0 63:1.0 67:1.0 73:1.0 74:1.0 76:1.0 82:1.0 83:1.0 
-2.0 2:1.0 9:1.0 18:1.0 19:1.0 39:1.0 40:1.0 51:1.0 63:1.0 67:1.0 73:1.0 74:1.0 76:1.0 80:1.0 83:1.0 
-2.0 4:1.0 16:1.0 22:1.0 36:1.0 40:1.0 63:1.0 67:1.0 73:1.0 74:1.0 76:1.0 80:1.0 83:1.0 
-0.4727924757377262 2:1.0 10:1.0 15:1.0 29:1.0 39:1.0 42:1.0 55:1.0 64:1.0 67:1.0 72:1.0 74:1.0 76:1.0 80:1.0 83:1.0 
-2.0 4:1.0 6:1.0 17:1.0 22:1.0 36:1.0 40:1.0 50:1.0 63:1.0 67:1.0 73:1.0 74:1.0 76:1.0 80:1.0 83:1.0 
-2.0 3:1.0 6:1.0 18:1.0 19:1.0 39:1.0 40:1.0 50:1.0 61:1.0 67:1.0 72:1.0 74:1.0 76:1.0 78:1.0 83:1.0 
-2.0 3:1.0 6:1.0 18:1.0 20:1.0 37:1.0 40:1.0 51:1.0 63:1.0 67:1.0 73:1.0 74:1.0 76:1.0 80:1.0 83:1.0 
-0.17174292538307082 2:1.0 6:1.0 17:1.0 25:1.0 38:1.0 40:1.0 54:1.0 63:1.0 69:1.0 73:1.0 74:1.0 76:1.0 80:1.0 83:1.0 
-2.0 4:1.0 8:1.0 18:1.0 20:1.0 37:1.0 40:1.0 50:1.0 63:1.0 67:1.0 73:1.0 74:1.0 76:1.0 82:1.0 83:1.0 
-2.0 3:1.0 6:1.0 18:1.0 22:1.0 36:1.0 41:1.0 51:1.0 66:1.0 67:1.0 72:1.0 74:1.0 77:1.0 82:1.0 83:1.0 
-2.0 4:1.0 6:1.0 15:1.0 22:1.0 36:1.0 40:1.0 50:1.0 63:1.0 67:1.0 73:1.0 74:1.0 76:1.0 80:1.0 83:1.0 
-2.0 3:1.0 6:1.0 14:1.0 22:1.0 36:1.0 40:1.0 48:1.0 63:1.0 67:1.0 73:1.0 74:1.0 77:1.0 80:1.0 83:1.0 
-2.0 2:1.0 6:1.0 17:1.0 19:1.0 39:1.0 40:1.0 49:1.0 63:1.0 67:1.0 73:1.0 74:1.0 76:1.0 82:1.0 83:1.0 
-2.0 4:1.0 6:1.0 18:1.0 21:1.0 35:1.0 40:1.0 57:1.0 63:1.0 67:1.0 73:1.0 74:1.0 77:1.0 80:1.0 83:1.0 
-2.0 2:1.0 6:1.0 14:1.0 22:1.0 36:1.0 40:1.0 51:1.0 63:1.0 67:1.0 73:1.0 74:1.0 76:1.0 82:1.0 83:1.0 
-2.0 4:1.0 11:1.0 15:1.0 22:1.0 36:1.0 40:1.0 59:1.0 63:1.0 67:1.0 73:1.0 74:1.0 76:1.0 80:1.0 83:1.0 
-2.0 5:1.0 7:1.0 15:1.0 25:1.0 38:1.0 40:1.0 56:1.0 63:1.0 67:1.0 73:1.0 74:1.0 76:1.0 80:1.0 83:1.0 
-2.0 4:1.0 8:1.0 16:1.0 19:1.0 39:1.0 42:1.0 50:1.0 64:1.0 67:1.0 73:1.0 75:1.0 76:1.0 82:1.0 83:1.0 
-2.0 3:1.0 6:1.0 16:1.0 22:1.0 36:1.0 40:1.0 57:1.0 63:1.0 67:1.0 73:1.0 75:1.0 76:1.0 80:1.0 83:1.0 
-0.39914759838600433 2:1.0 6:1.0 18:1.0 20:1.0 37:1.0 40:1.0 50:1.0 63:1.0 70:1.0 73:1.0 74:1.0 76:1.0 82:1.0 
-2.0 5:1.0 7:1.0 15:1.0 20:1.0 37:1.0 40:1.0 51:1.0 63:1.0 67:1.0 73:1.0 74:1.0 76:1.0 78:1.0 83:1.0 
-2.0 3:1.0 6:1.0 18:1.0 22:1.0 36:1.0 40:1.0 48:1.0 63:1.0 67:1.0 73:1.0 74:1.0 76:1.0 81:1.0 83:1.0 
-2.0 2:1.0 6:1.0 18:1.0 19:1.0 39:1.0 40:1.0 48:1.0 63:1.0 67:1.0 73:1.0 74:1.0 76:1.0 80:1.0 83:1.0 
-0.981248295761844 5:1.0 6:1.0 15:1.0 25:1.0 38:1.0 44:1.0 52:1.0 64:1.0 67:1.0 72:1.0 74:1.0 76:1.0 79:1.0 83:1.0 
-2.0 2:1.0 6:1.0 18:1.0 19:1.0 39:1.0 40:1.0 51:1.0 63:1.0 67:1.0 73:1.0 74:1.0 76:1.0 80:1.0 83:1.0 
-1.730214655260258 5:1.0 6:1.0 15:1.0 33:1.0 35:1.0 40:1.0 53:1.0 63:1.0 67:1.0 73:1.0 74:1.0 76:1.0 82:1.0 
-2.0 4:1.0 7:1.0 17:1.0 19:1.0 39:1.0 40:1.0 51:1.0 63:1.0 67:1.0 73:1.0 74:1.0 76:1.0 82:1.0 88:1.0 
-2.0 2:1.0 6:1.0 18:1.0 22:1.0 36:1.0 40:1.0 51:1.0 61:1.0 67:1.0 72:1.0 74:1.0 76:1.0 80:1.0 83:1.0 
-2.0 3:1.0 7:1.0 18:1.0 22:1.0 36:1.0 40:1.0 51:1.0 63:1.0 67:1.0 73:1.0 74:1.0 76:1.0 82:1.0 83:1.0 
-2.0 4:1.0 6:1.0 18:1.0 20:1.0 37:1.0 40:1.0 47:1.0 63:1.0 67:1.0 73:1.0 74:1.0 76:1.0 80:1.0 83:1.0 
-2.0 3:1.0 6:1.0 16:1.0 19:1.0 39:1.0 40:1.0 49:1.0 61:1.0 67:1.0 72:1.0 74:1.0 76:1.0 80:1.0 83:1.0 
-2.0 5:1.0 6:1.0 15:1.0 20:1.0 37:1.0 41:1.0 48:1.0 64:1.0 67:1.0 73:1.0 75:1.0 76:1.0 80:1.0 83:1.0 
-2.0 3:1.0 10:1.0 17:1.0 20:1.0 37:1.0 40:1.0 48:1.0 63:1.0 67:1.0 73:1.0 74:1.0 77:1.0 80:1.0 83:1.0 
-0.0912328065725281 5:1.0 8:1.0 17:1.0 19:1.0 39:1.0 43:1.0 50:1.0 64:1.0 67:1.0 72:1.0 74:1.0 76:1.0 78:1.0 83:1.0 
-2.0 5:1.0 8:1.0 15:1.0 20:1.0 37:1.0 41:1.0 51:1.0 64:1.0 67:1.0 73:1.0 74:1.0 76:1.0 82:1.0 83:1.0 
-2.0 5:1.0 6:1.0 17:1.0 20:1.0 37:1.0 40:1.0 48:1.0 63:1.0 67:1.0 73:1.0 74:1.0 76:1.0 80:1.0 83:1.0 
-2.0 2:1.0 11:1.0 17:1.0 23:1.0 39:1.0 42:1.0 52:1.0 64:1.0 68:1.0 73:1.0 75:1.0 76:1.0 82:1.0 90:1.0 
-2.0 4:1.0 6:1.0 18:1.0 22:1.0 36:1.0 40:1.0 50:1.0 63:1.0 67:1.0 73:1.0 75:1.0 76:1.0 82:1.0 83:1.0 
-2.0 2:1.0 6:1.0 14:1.0 19:1.0 39:1.0 42:1.0 52:1.0 64:1.0 67:1.0 72:1.0 75:1.0 76:1.0 80:1.0 83:1.0 
-2.0 2:1.0 6:1.0 14:1.0 19:1.0 39:1.0 40:1.0 50:1.0 63:1.0 67:1.0 73:1.0 74:1.0 76:1.0 82:1.0 83:1.0 
-2.0 5:1.0 6:1.0 16:1.0 22:1.0 36:1.0 40:1.0 52:1.0 63:1.0 67:1.0 73:1.0 75:1.0 76:1.0 80:1.0 83:1.0 
-2.0 5:1.0 7:1.0 14:1.0 27:1.0 35:1.0 40:1.0 50:1.0 63:1.0 67:1.0 73:1.0 74:1.0 76:1.0 82:1.0 83:1.0 
-2.0 3:1.0 6:1.0 18:1.0 19:1.0 39:1.0 40:1.0 51:1.0 61:1.0 67:1.0 72:1.0 74:1.0 76:1.0 82:1.0 88:1.0 
-1.0954419531388961 2:1.0 7:1.0 17:1.0 19:1.0 39:1.0 42:1.0 47:1.0 64:1.0 67:1.0 73:1.0 74:1.0 76:1.0 81:1.0 83:1.0 
-2.0 2:1.0 6:1.0 17:1.0 19:1.0 39:1.0 40:1.0 52:1.0 63:1.0 67:1.0 73:1.0 74:1.0 76:1.0 80:1.0 83:1.0 
-0.557103997144317 5:1.0 18:1.0 22:1.0 36:1.0 40:1.0 61:1.0 67:1.0 72:1.0 74:1.0 76:1.0 78:1.0 83:1.0 
-2.0 3:1.0 11:1.0 18:1.0 29:1.0 39:1.0 40:1.0 59:1.0 63:1.0 71:1.0 73:1.0 74:1.0 76:1.0 80:1.0 83:1.0 
-2.0 4:1.0 6:1.0 16:1.0 20:1.0 37:1.0 40:1.0 54:1.0 63:1.0 71:1.0 73:1.0 74:1.0 76:1.0 80:1.0 83:1.0 
-2.0 3:1.0 6:1.0 16:1.0 22:1.0 36:1.0 40:1.0 48:1.0 63:1.0 67:1.0 73:1.0 74:1.0 76:1.0 82:1.0 83:1.0 
-2.0 2:1.0 6:1.0 16:1.0 19:1.0 39:1.0 40:1.0 51:1.0 63:1.0 67:1.0 73:1.0 74:1.0 76:1.0 80:1.0 107:1.0 
-2.0 4:1.0 6:1.0 17:1.0 19:1.0 39:1.0 43:1.0 47:1.0 64:1.0 67:1.0 73:1.0 74:1.0 76:1.0 80:1.0 83:1.0 
-2.0 4:1.0 6:1.0 16:1.0 22:1.0 36:1.0 40:1.0 51:1.0 63:1.0 67:1.0 73:1.0 74:1.0 76:1.0 81:1.0 83:1.0 
-2.0 4:1.0 6:1.0 17:1.0 23:1.0 39:1.0 41:1.0 55:1.0 64:1.0 67:1.0 73:1.0 74:1.0 76:1.0 80:1.0 83:1.0 
-2.0 3:1.0 6:1.0 15:1.0 22:1.0 36:1.0 40:1.0 54:1.0 63:1.0 67:1.0 73:1.0 74:1.0 76:1.0 80:1.0 83:1.0 
-2.0 4:1.0 7:1.0 14:1.0 19:1.0 39:1.0 40:1.0 56:1.0 63:1.0 67:1.0 73:1.0 74:1.0 76:1.0 82:1.0 83:1.0 
-2.0 4:1.0 6:1.0 15:1.0 22:1.0 36:1.0 40:1.0 51:1.0 63:1.0 67:1.0 73:1.0 74:1.0 76:1.0 82:1.0 83:1.0 
-2.0 5:1.0 7:1.0 15:1.0 22:1.0 36:1.0 40:1.0 50:1.0 63:1.0 68:1.0 73:1.0 74:1.0 76:1.0 82:1.0 93:1.0 
-2.0 5:1.0 6:1.0 17:1.0 22:1.0 36:1.0 41:1.0 51:1.0 66:1.0 67:1.0 72:1.0 74:1.0 76:1.0 79:1.0 83:1.0 
-2.0 5:1.0 6:1.0 15:1.0 22:1.0 36:1.0 40:1.0 50:1.0 63:1.0 67:1.0 73:1.0 74:1.0 76:1.0 80:1.0 83:1.0 
-2.0 2:1.0 6:1.0 17:1.0 22:1.0 36:1.0 40:1.0 50:1.0 63:1.0 67:1.0 73:1.0 74:1.0 76:1.0 80:1.0 83:1.0 
-0.980682877474678 2:1.0 6:1.0 17:1.0 25:1.0 38:1.0 42:1.0 51:1.0 62:1.0 67:1.0 73:1.0 74:1.0 76:1.0 82:1.0 83:1.0 
-0.44042968882549505 1:1.0 6:1.0 14:1.0 19:1.0 39:1.0 40:1.0 49:1.0 63:1.0 67:1.0 73:1.0 74:1.0 76:1.0 78:1.0 83:1.0 
-2.0 5:1.0 16:1.0 19:1.0 39:1.0 40:1.0 63:1.0 67:1.0 73:1.0 74:1.0 76:1.0 78:1.0 83:1.0 
-1.9525777766602979 1:1.0 6:1.0 15:1.0 20:1.0 37:1.0 40:1.0 55:1.0 61:1.0 69:1.0 72:1.0 74:1.0 76:1.0 81:1.0 83:1.0 
-2.0 3:1.0 6:1.0 17:1.0 32:1.0 39:1.0 41:1.0 52:1.0 66:1.0 67:1.0 72:1.0 74:1.0 76:1.0 82:1.0 83:1.0 
-2.0 5:1.0 14:1.0 19:1.0 39:1.0 40:1.0 63:1.0 67:1.0 73:1.0 74:1.0 76:1.0 78:1.0 83:1.0 
-2.0 4:1.0 6:1.0 17:1.0 22:1.0 36:1.0 40:1.0 48:1.0 63:1.0 70:1.0 73:1.0 74:1.0 76:1.0 80:1.0 83:1.0 
-0.7147287788693346 4:1.0 6:1.0 16:1.0 26:1.0 35:1.0 40:1.0 54:1.0 65:1.0 68:1.0 72:1.0 74:1.0 76:1.0 81:1.0 94:1.0 
-0.4424827037883296 3:1.0 10:1.0 17:1.0 19:1.0 39:1.0 42:1.0 52:1.0 64:1.0 67:1.0 72:1.0 74:1.0 76:1.0 80:1.0 83:1.0 
-1.3727160310747542 3:1.0 10:1.0 17:1.0 29:1.0 39:1.0 44:1.0 52:1.0 64:1.0 67:1.0 72:1.0 74:1.0 76:1.0 80:1.0 83:1.0 
-2.0 2:1.0 10:1.0 16:1.0 24:1.0 38:1.0 40:1.0 59:1.0 63:1.0 67:1.0 73:1.0 74:1.0 77:1.0 80:1.0 85:1.0 
-2.0 3:1.0 6:1.0 14:1.0 19:1.0 39:1.0 42:1.0 50:1.0 64:1.0 67:1.0 73:1.0 74:1.0 76:1.0 81:1.0 83:1.0 
-2.0 5:1.0 10:1.0 14:1.0 22:1.0 36:1.0 40:1.0 51:1.0 63:1.0 69:1.0 73:1.0 74:1.0 76:1.0 82:1.0 83:1.0 
-2.0 4:1.0 7:1.0 16:1.0 19:1.0 39:1.0 40:1.0 52:1.0 63:1.0 67:1.0 73:1.0 74:1.0 76:1.0 80:1.0 83:1.0 
-2.0 3:1.0 6:1.0 18:1.0 22:1.0 36:1.0 40:1.0 52:1.0 63:1.0 67:1.0 73:1.0 74:1.0 77:1.0 82:1.0 83:1.0 
-2.0 3:1.0 6:1.0 17:1.0 20:1.0 37:1.0 40:1.0 48:1.0 63:1.0 67:1.0 73:1.0 74:1.0 76:1.0 80:1.0 83:1.0 
-1.5462824120209557 5:1.0 15:1.0 23:1.0 39:1.0 45:1.0 66:1.0 68:1.0 72:1.0 74:1.0 76:1.0 80:1.0 102:1.0 
-2.0 5:1.0 6:1.0 15:1.0 22:1.0 36:1.0 40:1.0 48:1.0 63:1.0 67:1.0 73:1.0 74:1.0 76:1.0 80:1.0 83:1.0 
-2.0 4:1.0 10:1.0 14:1.0 19:1.0 39:1.0 41:1.0 52:1.0 66:1.0 67:1.0 73:1.0 74:1.0 76:1.0 82:1.0 83:1.0 
-1.3217902694559507 2:1.0 6:1.0 17:1.0 20:1.0 37:1.0 40:1.0 54:1.0 63:1.0 67:1.0 73:1.0 74:1.0 76:1.0 80:1.0 83:1.0 
-2.0 5:1.0 6:1.0 18:1.0 22:1.0 36:1.0 40:1.0 51:1.0 63:1.0 67:1.0 73:1.0 74:1.0 76:1.0 78:1.0 83:1.0 
-2.0 4:1.0 6:1.0 15:1.0 19:1.0 39:1.0 40:1.0 50:1.0 63:1.0 67:1.0 73:1.0 74:1.0 76:1.0 82:1.0 83:1.0 
-2.0 2:1.0 6:1.0 18:1.0 32:1.0 39:1.0 42:1.0 52:1.0 64:1.0 67:1.0 73:1.0 74:1.0 76:1.0 80:1.0 
-2.0 3:1.0 8:1.0 15:1.0 20:1.0 37:1.0 40:1.0 52:1.0 63:1.0 67:1.0 73:1.0 74:1.0 76:1.0 78:1.0 83:1.0 
-2.0 5:1.0 6:1.0 18:1.0 19:1.0 39:1.0 40:1.0 54:1.0 63:1.0 67:1.0 73:1.0 74:1.0 76:1.0 80:1.0 83:1.0 
-2.0 4:1.0 6:1.0 16:1.0 20:1.0 37:1.0 40:1.0 48:1.0 63:1.0 67:1.0 73:1.0 74:1.0 76:1.0 80:1.0 83:1.0 
-2.0 5:1.0 9:1.0 14:1.0 22:1.0 36:1.0 40:1.0 47:1.0 63:1.0 67:1.0 73:1.0 74:1.0 76:1.0 80:1.0 83:1.0 
-2.0 2:1.0 6:1.0 16:1.0 22:1.0 36:1.0 40:1.0 54:1.0 63:1.0 67:1.0 73:1.0 75:1.0 76:1.0 82:1.0 105:1.0 
-2.0 5:1.0 7:1.0 17:1.0 22:1.0 36:1.0 40:1.0 48:1.0 63:1.0 67:1.0 73:1.0 74:1.0 76:1.0 82:1.0 83:1.0 
-2.0 4:1.0 8:1.0 16:1.0 22:1.0 36:1.0 40:1.0 57:1.0 63:1.0 67:1.0 73:1.0 74:1.0 76:1.0 82:1.0 83:1.0 
-2.0 5:1.0 6:1.0 15:1.0 22:1.0 36:1.0 40:1.0 59:1.0 63:1.0 67:1.0 73:1.0 74:1.0 76:1.0 80:1.0 83:1.0 
-2.0 5:1.0 7:1.0 14:1.0 19:1.0 39:1.0 40:1.0 52:1.0 63:1.0 67:1.0 73:1.0 74:1.0 76:1.0 82:1.0 83:1.0 
-2.0 4:1.0 6:1.0 14:1.0 22:1.0 36:1.0 40:1.0 57:1.0 63:1.0 67:1.0 73:1.0 74:1.0 76:1.0 82:1.0 83:1.0 
-2.0 3:1.0 8:1.0 15:1.0 22:1.0 36:1.0 40:1.0 57:1.0 63:1.0 67:1.0 73:1.0 74:1.0 76:1.0 82:1.0 83:1.0 
-2.0 5:1.0 9:1.0 17:1.0 19:1.0 39:1.0 42:1.0 55:1.0 64:1.0 67:1.0 73:1.0 74:1.0 77:1.0 80:1.0 83:1.0 
-2.0 2:1.0 6:1.0 14:1.0 19:1.0 39:1.0 40:1.0 47:1.0 63:1.0 67:1.0 73:1.0 74:1.0 76:1.0 78:1.0 83:1.0 
-0.6595309768508075 3:1.0 6:1.0 16:1.0 19:1.0 39:1.0 44:1.0 52:1.0 64:1.0 67:1.0 72:1.0 74:1.0 76:1.0 82:1.0 83:1.0 
-2.0 3:1.0 10:1.0 17:1.0 22:1.0 36:1.0 40:1.0 48:1.0 63:1.0 67:1.0 73:1.0 74:1.0 76:1.0 80:1.0 
-1.9238976316799195 4:1.0 6:1.0 14:1.0 19:1.0 39:1.0 42:1.0 55:1.0 62:1.0 67:1.0 72:1.0 74:1.0 76:1.0 79:1.0 83:1.0 
-0.46654253766824305 5:1.0 6:1.0 16:1.0 22:1.0 36:1.0 42:1.0 51:1.0 64:1.0 67:1.0 72:1.0 74:1.0 76:1.0 79:1.0 83:1.0 
-2.0 2:1.0 6:1.0 15:1.0 19:1.0 39:1.0 40:1.0 52:1.0 63:1.0 67:1.0 73:1.0 74:1.0 76:1.0 82:1.0 83:1.0 
-2.0 4:1.0 10:1.0 14:1.0 19:1.0 39:1.0 40:1.0 52:1.0 61:1.0 67:1.0 72:1.0 74:1.0 76:1.0 81:1.0 83:1.0 
-2.0 4:1.0 10:1.0 16:1.0 22:1.0 36:1.0 40:1.0 57:1.0 63:1.0 67:1.0 73:1.0 74:1.0 76:1.0 82:1.0 83:1.0 
-2.0 4:1.0 6:1.0 15:1.0 27:1.0 35:1.0 40:1.0 52:1.0 61:1.0 67:1.0 72:1.0 74:1.0 76:1.0 81:1.0 83:1.0 
-2.0 2:1.0 6:1.0 17:1.0 29:1.0 39:1.0 42:1.0 51:1.0 62:1.0 67:1.0 73:1.0 74:1.0 76:1.0 79:1.0 83:1.0 
-2.0 4:1.0 6:1.0 16:1.0 22:1.0 36:1.0 40:1.0 48:1.0 63:1.0 67:1.0 73:1.0 74:1.0 76:1.0 80:1.0 83:1.0 
-2.0 2:1.0 6:1.0 15:1.0 22:1.0 36:1.0 40:1.0 48:1.0 61:1.0 67:1.0 72:1.0 74:1.0 76:1.0 81:1.0 83:1.0 
-2.0 4:1.0 6:1.0 14:1.0 24:1.0 38:1.0 40:1.0 48:1.0 63:1.0 67:1.0 73:1.0 74:1.0 76:1.0 81:1.0 83:1.0 
-2.0 2:1.0 7:1.0 18:1.0 19:1.0 39:1.0 40:1.0 50:1.0 63:1.0 67:1.0 73:1.0 74:1.0 76:1.0 82:1.0 83:1.0 
-2.0 5:1.0 18:1.0 20:1.0 37:1.0 40:1.0 63:1.0 67:1.0 73:1.0 74:1.0 76:1.0 80:1.0 83:1.0 
-1.3000666060778026 2:1.0 6:1.0 17:1.0 20:1.0 37:1.0 42:1.0 52:1.0 64:1.0 71:1.0 72:1.0 75:1.0 76:1.0 82:1.0 83:1.0 
-2.0 3:1.0 11:1.0 18:1.0 22:1.0 36:1.0 40:1.0 55:1.0 63:1.0 67:1.0 73:1.0 75:1.0 76:1.0 80:1.0 83:1.0 
-2.0 5:1.0 8:1.0 16:1.0 19:1.0 39:1.0 40:1.0 51:1.0 63:1.0 67:1.0 73:1.0 74:1.0 76:1.0 80:1.0 83:1.0 
-2.0 4:1.0 6:1.0 18:1.0 20:1.0 37:1.0 40:1.0 56:1.0 61:1.0 67:1.0 72:1.0 74:1.0 76:1.0 78:1.0 83:1.0 
-2.0 4:1.0 11:1.0 16:1.0 29:1.0 39:1.0 42:1.0 52:1.0 62:1.0 67:1.0 72:1.0 74:1.0 76:1.0 79:1.0 83:1.0 
-2.0 5:1.0 6:1.0 17:1.0 22:1.0 36:1.0 40:1.0 53:1.0 63:1.0 71:1.0 73:1.0 74:1.0 76:1.0 80:1.0 
-0.5058579347366696 2:1.0 7:1.0 17:1.0 22:1.0 36:1.0 40:1.0 48:1.0 63:1.0 67:1.0 73:1.0 74:1.0 76:1.0 81:1.0 83:1.0 
-2.0 3:1.0 11:1.0 18:1.0 19:1.0 39:1.0 40:1.0 59:1.0 63:1.0 71:1.0 73:1.0 74:1.0 76:1.0 82:1.0 83:1.0 
-2.0 5:1.0 14:1.0 19:1.0 39:1.0 40:1.0 63:1.0 67:1.0 73:1.0 74:1.0 76:1.0 80:1.0 83:1.0 
-2.0 2:1.0 6:1.0 14:1.0 22:1.0 36:1.0 40:1.0 52:1.0 63:1.0 67:1.0 73:1.0 74:1.0 76:1.0 82:1.0 83:1.0 
-2.0 5:1.0 6:1.0 15:1.0 22:1.0 36:1.0 40:1.0 51:1.0 61:1.0 67:1.0 72:1.0 74:1.0 76:1.0 80:1.0 83:1.0 
-2.0 3:1.0 8:1.0 14:1.0 22:1.0 36:1.0 40:1.0 51:1.0 63:1.0 67:1.0 73:1.0 74:1.0 76:1.0 80:1.0 83:1.0 
-2.0 2:1.0 6:1.0 14:1.0 20:1.0 37:1.0 40:1.0 55:1.0 63:1.0 67:1.0 73:1.0 74:1.0 76:1.0 82:1.0 83:1.0 
-2.0 4:1.0 6:1.0 18:1.0 26:1.0 35:1.0 40:1.0 51:1.0 63:1.0 67:1.0 73:1.0 74:1.0 76:1.0 80:1.0 103:1.0 
-2.0 3:1.0 6:1.0 15:1.0 20:1.0 37:1.0 40:1.0 55:1.0 63:1.0 67:1.0 73:1.0 74:1.0 76:1.0 82:1.0 83:1.0 
-2.0 3:1.0 8:1.0 16:1.0 20:1.0 37:1.0 40:1.0 50:1.0 63:1.0 67:1.0 73:1.0 74:1.0 77:1.0 80:1.0 83:1.0 
-2.0 5:1.0 6:1.0 14:1.0 23:1.0 39:1.0 45:1.0 52:1.0 66:1.0 67:1.0 73:1.0 74:1.0 76:1.0 82:1.0 83:1.0 
-2.0 2:1.0 11:1.0 16:1.0 29:1.0 39:1.0 40:1.0 52:1.0 63:1.0 67:1.0 73:1.0 74:1.0 76:1.0 78:1.0 83:1.0 
-2.0 4:1.0 7:1.0 14:1.0 19:1.0 39:1.0 40:1.0 56:1.0 63:1.0 67:1.0 73:1.0 74:1.0 76:1.0 82:1.0 83:1.0 
-2.0 4:1.0 7:1.0 18:1.0 22:1.0 36:1.0 40:1.0 52:1.0 63:1.0 67:1.0 73:1.0 74:1.0 76:1.0 82:1.0 83:1.0 
-2.0 4:1.0 6:1.0 15:1.0 20:1.0 37:1.0 40:1.0 48:1.0 63:1.0 69:1.0 73:1.0 74:1.0 76:1.0 80:1.0 83:1.0 
-2.0 3:1.0 6:1.0 17:1.0 20:1.0 37:1.0 40:1.0 49:1.0 63:1.0 67:1.0 73:1.0 74:1.0 76:1.0 82:1.0 83:1.0 
-2.0 2:1.0 6:1.0 18:1.0 31:1.0 35:1.0 40:1.0 51:1.0 61:1.0 67:1.0 72:1.0 74:1.0 76:1.0 79:1.0 83:1.0 
-1.9576438884931175 1:1.0 6:1.0 14:1.0 25:1.0 38:1.0 40:1.0 57:1.0 63:1.0 67:1.0 73:1.0 74:1.0 76:1.0 80:1.0 83:1.0 
-1.1521463990001466 3:1.0 6:1.0 16:1.0 22:1.0 36:1.0 42:1.0 52:1.0 64:1.0 67:1.0 72:1.0 74:1.0 77:1.0 81:1.0 83:1.0 
-1.2178301990879281 2:1.0 6:1.0 16:1.0 19:1.0 39:1.0 42:1.0 51:1.0 62:1.0 68:1.0 72:1.0 74:1.0 76:1.0 82:1.0 110:1.0 
-0.9606494504705366 4:1.0 16:1.0 31:1.0 35:1.0 40:1.0 61:1.0 67:1.0 72:1.0 74:1.0 76:1.0 78:1.0 95:1.0 
-2.0 1:1.0 6:1.0 17:1.0 22:1.0 36:1.0 40:1.0 58:1.0 61:1.0 67:1.0 72:1.0 75:1.0 76:1.0 80:1.0 83:1.0 
-2.0 2:1.0 6:1.0 15:1.0 22:1.0 36:1.0 40:1.0 51:1.0 63:1.0 67:1.0 73:1.0 74:1.0 76:1.0 82:1.0 83:1.0 
-2.0 5:1.0 17:1.0 29:1.0 39:1.0 40:1.0 63:1.0 67:1.0 73:1.0 74:1.0 76:1.0 82:1.0 83:1.0 
-2.0 4:1.0 6:1.0 17:1.0 19:1.0 39:1.0 42:1.0 52:1.0 64:1.0 71:1.0 73:1.0 74:1.0 76:1.0 80:1.0 83:1.0 
-2.0 4:1.0 9:1.0 17:1.0 25:1.0 38:1.0 41:1.0 47:1.0 64:1.0 67:1.0 73:1.0 74:1.0 76:1.0 80:1.0 83:1.0 
-2.0 4:1.0 6:1.0 14:1.0 20:1.0 37:1.0 40:1.0 48:1.0 63:1.0 67:1.0 73:1.0 74:1.0 76:1.0 80:1.0 83:1.0 
-2.0 5:1.0 6:1.0 16:1.0 23:1.0 39:1.0 42:1.0 52:1.0 64:1.0 67:1.0 73:1.0 74:1.0 76:1.0 82:1.0 83:1.0 
-2.0 4:1.0 6:1.0 15:1.0 22:1.0 36:1.0 40:1.0 51:1.0 61:1.0 67:1.0 72:1.0 74:1.0 76:1.0 80:1.0 83:1.0 
-0.44104325997852734 1:1.0 6:1.0 15:1.0 20:1.0 37:1.0 40:1.0 55:1.0 63:1.0 71:1.0 73:1.0 74:1.0 76:1.0 80:1.0 83:1.0 
-2.0 1:1.0 6:1.0 14:1.0 19:1.0 39:1.0 40:1.0 55:1.0 62:1.0 69:1.0 72:1.0 75:1.0 76:1.0 78:1.0 83:1.0 
-2.0 5:1.0 6:1.0 16:1.0 24:1.0 38:1.0 40:1.0 50:1.0 61:1.0 67:1.0 72:1.0 75:1.0 76:1.0 80:1.0 83:1.0 
-1.3010927734428233 4:1.0 17:1.0 25:1.0 38:1.0 41:1.0 64:1.0 67:1.0 73:1.0 74:1.0 76:1.0 82:1.0 83:1.0 
-2.0 3:1.0 6:1.0 17:1.0 22:1.0 36:1.0 40:1.0 48:1.0 63:1.0 67:1.0 73:1.0 74:1.0 76:1.0 82:1.0 83:1.0 
-2.0 4:1.0 6:1.0 18:1.0 29:1.0 39:1.0 40:1.0 50:1.0 63:1.0 67:1.0 73:1.0 74:1.0 76:1.0 80:1.0 109:1.0 
-2.0 1:1.0 6:1.0 18:1.0 20:1.0 37:1.0 40:1.0 55:1.0 63:1.0 67:1.0 73:1.0 74:1.0 76:1.0 81:1.0 83:1.0 
-2.0 5:1.0 6:1.0 16:1.0 22:1.0 36:1.0 40:1.0 54:1.0 63:1.0 67:1.0 73:1.0 74:1.0 76:1.0 82:1.0 83:1.0 
-0.09591428385947863 4:1.0 6:1.0 16:1.0 19:1.0 39:1.0 42:1.0 55:1.0 62:1.0 67:1.0 73:1.0 74:1.0 76:1.0 80:1.0 83:1.0 
-2.0 3:1.0 11:1.0 18:1.0 19:1.0 39:1.0 40:1.0 51:1.0 63:1.0 67:1.0 73:1.0 74:1.0 76:1.0 79:1.0 83:1.0 
-2.0 5:1.0 7:1.0 16:1.0 22:1.0 36:1.0 40:1.0 48:1.0 63:1.0 67:1.0 73:1.0 75:1.0 76:1.0 78:1.0 83:1.0 
-2.0 3:1.0 6:1.0 17:1.0 22:1.0 36:1.0 40:1.0 48:1.0 63:1.0 67:1.0 73:1.0 74:1.0 76:1.0 80:1.0 83:1.0 
-0.3722973688908283 3:1.0 6:1.0 14:1.0 19:1.0 39:1.0 42:1.0 55:1.0 64:1.0 67:1.0 72:1.0 74:1.0 76:1.0 81:1.0 83:1.0 
-2.0 5:1.0 6:1.0 18:1.0 26:1.0 35:1.0 40:1.0 54:1.0 63:1.0 71:1.0 73:1.0 75:1.0 76:1.0 80:1.0 83:1.0 
-1.1633934511695765 3:1.0 6:1.0 16:1.0 19:1.0 39:1.0 42:1.0 51:1.0 64:1.0 67:1.0 73:1.0 74:1.0 76:1.0 78:1.0 87:1.0 
-2.0 3:1.0 9:1.0 15:1.0 19:1.0 39:1.0 42:1.0 55:1.0 62:1.0 67:1.0 73:1.0 74:1.0 76:1.0 79:1.0 83:1.0 
-2.0 3:1.0 10:1.0 15:1.0 20:1.0 37:1.0 40:1.0 49:1.0 61:1.0 67:1.0 72:1.0 74:1.0 76:1.0 80:1.0 83:1.0 
-2.0 5:1.0 6:1.0 15:1.0 33:1.0 35:1.0 40:1.0 54:1.0 63:1.0 67:1.0 73:1.0 74:1.0 77:1.0 80:1.0 83:1.0 
-2.0 5:1.0 6:1.0 15:1.0 22:1.0 36:1.0 40:1.0 48:1.0 63:1.0 67:1.0 73:1.0 74:1.0 76:1.0 80:1.0 83:1.0 
-0.47884972250288044 4:1.0 6:1.0 16:1.0 22:1.0 36:1.0 43:1.0 52:1.0 66:1.0 67:1.0 72:1.0 74:1.0 77:1.0 80:1.0 86:1.0 
-1.7066351875111767 5:1.0 7:1.0 15:1.0 20:1.0 37:1.0 40:1.0 49:1.0 63:1.0 67:1.0 73:1.0 74:1.0 76:1.0 82:1.0 83:1.0 
-2.0 3:1.0 6:1.0 17:1.0 22:1.0 36:1.0 40:1.0 53:1.0 63:1.0 67:1.0 73:1.0 74:1.0 76:1.0 80:1.0 83:1.0 
-0.18086839146327824 3:1.0 10:1.0 18:1.0 20:1.0 37:1.0 42:1.0 51:1.0 66:1.0 71:1.0 72:1.0 74:1.0 76:1.0 82:1.0 83:1.0 
-2.0 5:1.0 6:1.0 16:1.0 20:1.0 37:1.0 40:1.0 56:1.0 63:1.0 67:1.0 73:1.0 74:1.0 76:1.0 80:1.0 83:1.0 
-0.035427295318952126 4:1.0 6:1.0 15:1.0 20:1.0 37:1.0 41:1.0 55:1.0 64:1.0 68:1.0 72:1.0 74:1.0 76:1.0 79:1.0 83:1.0 
-2.0 2:1.0 7:1.0 15:1.0 20:1.0 37:1.0 40:1.0 50:1.0 63:1.0 67:1.0 73:1.0 74:1.0 76:1.0 82:1.0 83:1.0 
-2.0 3:1.0 6:1.0 14:1.0 19:1.0 39:1.0 40:1.0 51:1.0 61:1.0 67:1.0 72:1.0 74:1.0 76:1.0 80:1.0 83:1.0 
-2.0 3:1.0 6:1.0 14:1.0 20:1.0 37:1.0 40:1.0 47:1.0 63:1.0 67:1.0 73:1.0 74:1.0 77:1.0 80:1.0 83:1.0 
-2.0 3:1.0 9:1.0 18:1.0 20:1.0 37:1.0 40:1.0 47:1.0 61:1.0 67:1.0 72:1.0 75:1.0 76:1.0 80:1.0 83:1.0 
-2.0 2:1.0 6:1.0 16:1.0 24:1.0 38:1.0 40:1.0 51:1.0 63:1.0 67:1.0 73:1.0 74:1.0 76:1.0 80:1.0 83:1.0 
-2.0 3:1.0 8:1.0 15:1.0 29:1.0 39:1.0 41:1.0 51:1.0 64:1.0 67:1.0 72:1.0 74:1.0 76:1.0 82:1.0 83:1.0 
-2.0 5:1.0 9:1.0 14:1.0 19:1.0 39:1.0 45:1.0 51:1.0 64:1.0 67:1.0 72:1.0 74:1.0 76:1.0 80:1.0 83:1.0 
-2.0 4:1.0 6:1.0 15:1.0 22:1.0 36:1.0 40:1.0 49:1.0 63:1.0 67:1.0 73:1.0 74:1.0 76:1.0 80:1.0 83:1.0 
-2.0 5:1.0 8:1.0 18:1.0 29:1.0 39:1.0 41:1.0 51:1.0 64:1.0 71:1.0 72:1.0 74:1.0 76:1.0 82:1.0 83:1.0 
-2.0 2:1.0 6:1.0 15:1.0 22:1.0 36:1.0 40:1.0 50:1.0 63:1.0 67:1.0 73:1.0 74:1.0 76:1.0 81:1.0 83:1.0 
-2.0 5:1.0 7:1.0 16:1.0 24:1.0 38:1.0 40:1.0 48:1.0 63:1.0 67:1.0 73:1.0 75:1.0 76:1.0 78:1.0 113:1.0 
-0.6500677748210849 4:1.0 6:1.0 17:1.0 33:1.0 35:1.0 40:1.0 53:1.0 63:1.0 67:1.0 73:1.0 74:1.0 76:1.0 80:1.0 103:1.0 
-2.0 5:1.0 6:1.0 14:1.0 20:1.0 37:1.0 40:1.0 51:1.0 63:1.0 67:1.0 73:1.0 74:1.0 77:1.0 80:1.0 83:1.0 
-2.0 3:1.0 6:1.0 16:1.0 22:1.0 36:1.0 40:1.0 50:1.0 61:1.0 67:1.0 72:1.0 74:1.0 76:1.0 78:1.0 83:1.0 
-2.0 5:1.0 6:1.0 15:1.0 20:1.0 37:1.0 40:1.0 48:1.0 63:1.0 67:1.0 73:1.0 74:1.0 76:1.0 82:1.0 83:1.0 
-2.0 4:1.0 10:1.0 15:1.0 29:1.0 39:1.0 41:1.0 52:1.0 66:1.0 71:1.0 72:1.0 74:1.0 76:1.0 80:1.0 83:1.0 
-2.0 5:1.0 7:1.0 16:1.0 22:1.0 36:1.0 40:1.0 51:1.0 63:1.0 67:1.0 73:1.0 74:1.0 76:1.0 78:1.0 83:1.0 
-2.0 3:1.0 6:1.0 14:1.0 22:1.0 36:1.0 42:1.0 53:1.0 64:1.0 67:1.0 73:1.0 75:1.0 76:1.0 82:1.0 83:1.0 
-2.0 4:1.0 6:1.0 16:1.0 25:1.0 38:1.0 40:1.0 48:1.0 63:1.0 67:1.0 73:1.0 74:1.0 76:1.0 82:1.0 83:1.0 
-2.0 4:1.0 10:1.0 14:1.0 24:1.0 38:1.0 40:1.0 52:1.0 63:1.0 67:1.0 73:1.0 74:1.0 76:1.0 82:1.0 83:1.0 
-2.0 3:1.0 6:1.0 15:1.0 19:1.0 39:1.0 40:1.0 51:1.0 63:1.0 67:1.0 73:1.0 74:1.0 76:1.0 81:1.0 83:1.0 
-2.0 3:1.0 6:1.0 14:1.0 22:1.0 36:1.0 40:1.0 57:1.0 63:1.0 67:1.0 73:1.0 75:1.0 76:1.0 80:1.0 83:1.0 
-2.0 4:1.0 6:1.0 16:1.0 31:1.0 35:1.0 40:1.0 50:1.0 63:1.0 67:1.0 73:1.0 74:1.0 77:1.0 82:1.0 83:1.0 
-1.906730239049542 2:1.0 7:1.0 16:1.0 25:1.0 38:1.0 40:1.0 56:1.0 63:1.0 67:1.0 73:1.0 74:1.0 76:1.0 82:1.0 83:1.0 
-2.0 5:1.0 7:1.0 14:1.0 22:1.0 36:1.0 40:1.0 56:1.0 63:1.0 67:1.0 73:1.0 74:1.0 76:1.0 82:1.0 83:1.0 
-2.0 3:1.0 7:1.0 17:1.0 22:1.0 36:1.0 40:1.0 56:1.0 63:1.0 67:1.0 73:1.0 74:1.0 76:1.0 81:1.0 83:1.0 
-2.0 5:1.0 10:1.0 18:1.0 25:1.0 38:1.0 40:1.0 57:1.0 63:1.0 71:1.0 73:1.0 74:1.0 76:1.0 80:1.0 83:1.0 
-2.0 4:1.0 6:1.0 18:1.0 22:1.0 36:1.0 41:1.0 50:1.0 66:1.0 71:1.0 73:1.0 75:1.0 76:1.0 80:1.0 83:1.0 
-2.0 2:1.0 11:1.0 16:1.0 32:1.0 39:1.0 42:1.0 52:1.0 64:1.0 67:1.0 72:1.0 74:1.0 76:1.0 82:1.0 83:1.0 
-2.0 5:1.0 9:1.0 14:1.0 19:1.0 39:1.0 40:1.0 51:1.0 63:1.0 67:1.0 73:1.0 74:1.0 76:1.0 80:1.0 83:1.0 
-2.0 3:1.0 6:1.0 15:1.0 20:1.0 37:1.0 40:1.0 52:1.0 63:1.0 67:1.0 73:1.0 74:1.0 76:1.0 80:1.0 83:1.0 
-0.4296541933446883 5:1.0 10:1.0 15:1.0 24:1.0 38:1.0 41:1.0 49:1.0 64:1.0 67:1.0 72:1.0 75:1.0 76:1.0 78:1.0 83:1.0 
-2.0 3:1.0 10:1.0 17:1.0 24:1.0 38:1.0 40:1.0 52:1.0 63:1.0 67:1.0 73:1.0 74:1.0 76:1.0 82:1.0 83:1.0 
-2.0 4:1.0 6:1.0 14:1.0 22:1.0 36:1.0 40:1.0 55:1.0 63:1.0 67:1.0 73:1.0 74:1.0 76:1.0 78:1.0 83:1.0 
-2.0 3:1.0 10:1.0 14:1.0 20:1.0 37:1.0 40:1.0 59:1.0 63:1.0 67:1.0 73:1.0 74:1.0 76:1.0 82:1.0 83:1.0 
-2.0 3:1.0 6:1.0 18:1.0 22:1.0 36:1.0 40:1.0 50:1.0 63:1.0 67:1.0 73:1.0 74:1.0 76:1.0 82:1.0 83:1.0 
-0.9646648754652196 3:1.0 6:1.0 16:1.0 22:1.0 36:1.0 40:1.0 54:1.0 63:1.0 67:1.0 73:1.0 74:1.0 76:1.0 80:1.0 83:1.0 
-2.0 1:1.0 7:1.0 14:1.0 19:1.0 39:1.0 40:1.0 51:1.0 61:1.0 67:1.0 72:1.0 74:1.0 76:1.0 80:1.0 83:1.0 
-2.0 4:1.0 10:1.0 16:1.0 19:1.0 39:1.0 40:1.0 52:1.0 63:1.0 67:1.0 73:1.0 74:1.0 76:1.0 82:1.0 83:1.0 
-2.0 4:1.0 6:1.0 14:1.0 22:1.0 36:1.0 42:1.0 54:1.0 64:1.0 67:1.0 73:1.0 75:1.0 76:1.0 81:1.0 83:1.0 
-2.0 5:1.0 7:1.0 14:1.0 20:1.0 37:1.0 40:1.0 56:1.0 63:1.0 67:1.0 73:1.0 74:1.0 76:1.0 82:1.0 83:1.0 
-2.0 5:1.0 10:1.0 14:1.0 20:1.0 37:1.0 40:1.0 57:1.0 63:1.0 67:1.0 73:1.0 74:1.0 76:1.0 80:1.0 83:1.0 
-2.0 3:1.0 9:1.0 18:1.0 29:1.0 39:1.0 42:1.0 47:1.0 64:1.0 67:1.0 72:1.0 74:1.0 76:1.0 80:1.0 83:1.0 
-2.0 4:1.0 7:1.0 14:1.0 20:1.0 37:1.0 40:1.0 48:1.0 63:1.0 67:1.0 73:1.0 74:1.0 76:1.0 80:1.0 83:1.0 
-2.0 4:1.0 6:1.0 17:1.0 22:1.0 36:1.0 40:1.0 54:1.0 63:1.0 67:1.0 73:1.0 74:1.0 76:1.0 80:1.0 83:1.0 
-0.9160761063293535 2:1.0 6:1.0 16:1.0 24:1.0 38:1.0 40:1.0 55:1.0 63:1.0 67:1.0 73:1.0 74:1.0 76:1.0 80:1.0 99:1.0 
-2.0 3:1.0 6:1.0 14:1.0 25:1.0 38:1.0 40:1.0 55:1.0 63:1.0 67:1.0 73:1.0 74:1.0 76:1.0 80:1.0 83:1.0 
-2.0 4:1.0 10:1.0 18:1.0 19:1.0 39:1.0 42:1.0 52:1.0 62:1.0 67:1.0 73:1.0 74:1.0 76:1.0 82:1.0 83:1.0 
-1.4821597050733193 1:1.0 11:1.0 17:1.0 20:1.0 37:1.0 40:1.0 55:1.0 63:1.0 71:1.0 73:1.0 74:1.0 76:1.0 79:1.0 83:1.0 
-2.0 5:1.0 6:1.0 18:1.0 22:1.0 36:1.0 40:1.0 54:1.0 61:1.0 67:1.0 72:1.0 75:1.0 76:1.0 80:1.0 119:1.0 
-1.9233537213182947 5:1.0 7:1.0 18:1.0 31:1.0 35:1.0 40:1.0 50:1.0 63:1.0 67:1.0 73:1.0 74:1.0 76:1.0 79:1.0 83:1.0 
-2.0 5:1.0 6:1.0 16:1.0 22:1.0 36:1.0 40:1.0 54:1.0 63:1.0 67:1.0 73:1.0 75:1.0 76:1.0 81:1.0 83:1.0 
-0.7673775853118422 3:1.0 6:1.0 14:1.0 20:1.0 37:1.0 43:1.0 49:1.0 64:1.0 67:1.0 72:1.0 75:1.0 76:1.0 82:1.0 83:1.0 
-2.0 4:1.0 6:1.0 14:1.0 20:1.0 37:1.0 40:1.0 48:1.0 63:1.0 67:1.0 73:1.0 74:1.0 76:1.0 82:1.0 83:1.0 
-2.0 3:1.0 6:1.0 18:1.0 25:1.0 38:1.0 40:1.0 56:1.0 63:1.0 67:1.0 73:1.0 74:1.0 76:1.0 82:1.0 83:1.0 
-2.0 5:1.0 11:1.0 14:1.0 19:1.0 39:1.0 45:1.0 52:1.0 64:1.0 67:1.0 73:1.0 75:1.0 76:1.0 80:1.0 83:1.0 
-2.0 4:1.0 10:1.0 15:1.0 22:1.0 36:1.0 40:1.0 59:1.0 63:1.0 67:1.0 73:1.0 74:1.0 76:1.0 82:1.0 83:1.0 
-2.0 3:1.0 6:1.0 15:1.0 25:1.0 38:1.0 40:1.0 48:1.0 63:1.0 67:1.0 73:1.0 74:1.0 76:1.0 80:1.0 83:1.0 
-2.0 4:1.0 6:1.0 15:1.0 24:1.0 38:1.0 43:1.0 51:1.0 64:1.0 67:1.0 73:1.0 74:1.0 76:1.0 80:1.0 83:1.0 
-2.0 2:1.0 6:1.0 15:1.0 32:1.0 39:1.0 40:1.0 52:1.0 61:1.0 67:1.0 72:1.0 74:1.0 76:1.0 82:1.0 83:1.0 
-2.0 5:1.0 6:1.0 14:1.0 20:1.0 37:1.0 40:1.0 51:1.0 61:1.0 67:1.0 72:1.0 74:1.0 76:1.0 81:1.0 83:1.0 
-2.0 5:1.0 8:1.0 15:1.0 22:1.0 36:1.0 40:1.0 50:1.0 63:1.0 67:1.0 73:1.0 74:1.0 76:1.0 82:1.0 83:1.0 
-1.3967941110194577 1:1.0 6:1.0 16:1.0 31:1.0 35:1.0 40:1.0 49:1.0 63:1.0 67:1.0 73:1.0 75:1.0 76:1.0 80:1.0 83:1.0 
-2.0 5:1.0 18:1.0 22:1.0 36:1.0 40:1.0 63:1.0 67:1.0 73:1.0 74:1.0 76:1.0 80:1.0 83:1.0 
-0.652753545174146 5:1.0 10:1.0 14:1.0 22:1.0 36:1.0 40:1.0 57:1.0 63:1.0 67:1.0 73:1.0 74:1.0 76:1.0 80:1.0 83:1.0 
-0.7066677633642701 3:1.0 6:1.0 15:1.0 22:1.0 36:1.0 40:1.0 54:1.0 63:1.0 67:1.0 73:1.0 74:1.0 76:1.0 80:1.0 83:1.0 
-0.885217378610059 4:1.0 6:1.0 14:1.0 21:1.0 35:1.0 40:1.0 49:1.0 61:1.0 67:1.0 72:1.0 74:1.0 76:1.0 80:1.0 83:1.0 
-2.0 4:1.0 6:1.0 17:1.0 22:1.0 36:1.0 40:1.0 48:1.0 63:1.0 71:1.0 73:1.0 74:1.0 76:1.0 80:1.0 83:1.0 
-2.0 3:1.0 6:1.0 18:1.0 19:1.0 39:1.0 42:1.0 51:1.0 64:1.0 67:1.0 72:1.0 75:1.0 76:1.0 82:1.0 83:1.0 
-2.0 3:1.0 6:1.0 15:1.0 19:1.0 39:1.0 44:1.0 51:1.0 66:1.0 67:1.0 72:1.0 74:1.0 76:1.0 80:1.0 83:1.0 
-2.0 5:1.0 6:1.0 17:1.0 20:1.0 37:1.0 40:1.0 50:1.0 63:1.0 67:1.0 73:1.0 74:1.0 76:1.0 78:1.0 83:1.0 
-1.3064997470801913 4:1.0 6:1.0 15:1.0 31:1.0 35:1.0 40:1.0 57:1.0 63:1.0 67:1.0 73:1.0 74:1.0 76:1.0 82:1.0 83:1.0 
-2.0 3:1.0 6:1.0 16:1.0 19:1.0 39:1.0 40:1.0 48:1.0 63:1.0 67:1.0 73:1.0 74:1.0 76:1.0 80:1.0 83:1.0 
-0.09580503448474872 3:1.0 6:1.0 17:1.0 26:1.0 35:1.0 40:1.0 53:1.0 63:1.0 67:1.0 73:1.0 74:1.0 76:1.0 80:1.0 83:1.0 
-2.0 3:1.0 6:1.0 16:1.0 24:1.0 38:1.0 40:1.0 59:1.0 63:1.0 71:1.0 73:1.0 74:1.0 76:1.0 82:1.0 83:1.0 
-2.0 4:1.0 8:1.0 17:1.0 27:1.0 35:1.0 40:1.0 48:1.0 63:1.0 67:1.0 73:1.0 74:1.0 76:1.0 80:1.0 
-2.0 4:1.0 17:1.0 22:1.0 36:1.0 40:1.0 63:1.0 67:1.0 73:1.0 74:1.0 76:1.0 80:1.0 83:1.0 
-2.0 2:1.0 6:1.0 18:1.0 19:1.0 39:1.0 40:1.0 51:1.0 63:1.0 67:1.0 73:1.0 74:1.0 76:1.0 82:1.0 83:1.0 
-0.8731819287992107 2:1.0 7:1.0 14:1.0 29:1.0 39:1.0 42:1.0 52:1.0 64:1.0 67:1.0 73:1.0 74:1.0 76:1.0 81:1.0 85:1.0 
-2.0 3:1.0 6:1.0 17:1.0 24:1.0 38:1.0 40:1.0 51:1.0 63:1.0 67:1.0 73:1.0 74:1.0 76:1.0 80:1.0 86:1.0 
-0.45208798268134 4:1.0 6:1.0 16:1.0 20:1.0 37:1.0 41:1.0 50:1.0 66:1.0 67:1.0 73:1.0 74:1.0 76:1.0 82:1.0 83:1.0 
-1.5761048313574502 2:1.0 6:1.0 15:1.0 20:1.0 37:1.0 40:1.0 53:1.0 63:1.0 67:1.0 73:1.0 74:1.0 76:1.0 80:1.0 100:1.0 
-0.54551691343592 5:1.0 15:1.0 22:1.0 36:1.0 42:1.0 64:1.0 67:1.0 73:1.0 74:1.0 77:1.0 79:1.0 83:1.0 
-1.1789529244437953 2:1.0 6:1.0 15:1.0 33:1.0 35:1.0 40:1.0 54:1.0 63:1.0 67:1.0 73:1.0 75:1.0 76:1.0 80:1.0 103:1.0 
-2.0 4:1.0 10:1.0 17:1.0 22:1.0 36:1.0 40:1.0 57:1.0 63:1.0 71:1.0 73:1.0 74:1.0 76:1.0 80:1.0 83:1.0 
-0.066985424147806 5:1.0 18:1.0 22:1.0 36:1.0 40:1.0 63:1.0 71:1.0 73:1.0 74:1.0 76:1.0 80:1.0 83:1.0 
-2.0 4:1.0 6:1.0 14:1.0 29:1.0 39:1.0 44:1.0 52:1.0 64:1.0 67:1.0 72:1.0 75:1.0 76:1.0 82:1.0 83:1.0 
-2.0 5:1.0 16:1.0 22:1.0 36:1.0 40:1.0 63:1.0 67:1.0 73:1.0 75:1.0 76:1.0 78:1.0 83:1.0 
-0.6786751540802504 5:1.0 6:1.0 16:1.0 21:1.0 35:1.0 40:1.0 54:1.0 63:1.0 67:1.0 73:1.0 74:1.0 76:1.0 80:1.0 83:1.0 
-2.0 5:1.0 6:1.0 18:1.0 19:1.0 39:1.0 40:1.0 52:1.0 63:1.0 67:1.0 73:1.0 74:1.0 76:1.0 82:1.0 83:1.0 
-1.8697555666862455 4:1.0 6:1.0 16:1.0 22:1.0 36:1.0 40:1.0 48:1.0 63:1.0 68:1.0 73:1.0 74:1.0 76:1.0 80:1.0 110:1.0 
-2.0 2:1.0 8:1.0 14:1.0 19:1.0 39:1.0 40:1.0 50:1.0 63:1.0 67:1.0 73:1.0 74:1.0 76:1.0 80:1.0 83:1.0 
-2.0 5:1.0 10:1.0 14:1.0 19:1.0 39:1.0 40:1.0 52:1.0 61:1.0 67:1.0 72:1.0 74:1.0 76:1.0 80:1.0 83:1.0 
-2.0 4:1.0 10:1.0 17:1.0 22:1.0 36:1.0 40:1.0 57:1.0 63:1.0 67:1.0 73:1.0 74:1.0 76:1.0 80:1.0 83:1.0 
-2.0 3:1.0 11:1.0 14:1.0 20:1.0 37:1.0 40:1.0 51:1.0 63:1.0 67:1.0 73:1.0 74:1.0 76:1.0 79:1.0 83:1.0 
-2.0 3:1.0 6:1.0 14:1.0 19:1.0 39:1.0 40:1.0 50:1.0 61:1.0 67:1.0 73:1.0 74:1.0 76:1.0 82:1.0 
-2.0 3:1.0 11:1.0 17:1.0 29:1.0 39:1.0 40:1.0 52:1.0 63:1.0 68:1.0 73:1.0 74:1.0 76:1.0 78:1.0 90:1.0 
-2.0 4:1.0 6:1.0 17:1.0 19:1.0 39:1.0 41:1.0 51:1.0 64:1.0 67:1.0 73:1.0 74:1.0 76:1.0 79:1.0 83:1.0 
-2.0 2:1.0 8:1.0 15:1.0 22:1.0 36:1.0 40:1.0 50:1.0 63:1.0 67:1.0 73:1.0 74:1.0 76:1.0 82:1.0 83:1.0 
-2.0 5:1.0 6:1.0 14:1.0 22:1.0 36:1.0 40:1.0 51:1.0 63:1.0 67:1.0 73:1.0 74:1.0 76:1.0 82:1.0 83:1.0 
-2.0 3:1.0 6:1.0 15:1.0 22:1.0 36:1.0 40:1.0 50:1.0 63:1.0 67:1.0 73:1.0 74:1.0 76:1.0 82:1.0 83:1.0 
-2.0 4:1.0 6:1.0 18:1.0 22:1.0 36:1.0 40:1.0 57:1.0 63:1.0 67:1.0 73:1.0 75:1.0 76:1.0 81:1.0 83:1.0 
-1.9197622162672374 5:1.0 10:1.0 18:1.0 19:1.0 39:1.0 44:1.0 52:1.0 64:1.0 71:1.0 72:1.0 74:1.0 77:1.0 78:1.0 83:1.0 
-0.09139756151719494 2:1.0 6:1.0 15:1.0 22:1.0 36:1.0 42:1.0 55:1.0 66:1.0 71:1.0 72:1.0 75:1.0 76:1.0 79:1.0 83:1.0 
-2.0 5:1.0 7:1.0 17:1.0 22:1.0 36:1.0 40:1.0 56:1.0 63:1.0 67:1.0 73:1.0 74:1.0 76:1.0 80:1.0 83:1.0 
-2.0 2:1.0 6:1.0 17:1.0 20:1.0 37:1.0 40:1.0 47:1.0 61:1.0 67:1.0 72:1.0 74:1.0 76:1.0 80:1.0 83:1.0 
-2.0 5:1.0 6:1.0 17:1.0 19:1.0 39:1.0 43:1.0 55:1.0 66:1.0 67:1.0 72:1.0 74:1.0 76:1.0 80:1.0 83:1.0 
-2.0 5:1.0 6:1.0 16:1.0 29:1.0 39:1.0 40:1.0 53:1.0 63:1.0 67:1.0 73:1.0 74:1.0 76:1.0 81:1.0 83:1.0 
-2.0 5:1.0 10:1.0 14:1.0 20:1.0 37:1.0 40:1.0 59:1.0 63:1.0 67:1.0 73:1.0 75:1.0 76:1.0 81:1.0 83:1.0 
-2.0 2:1.0 6:1.0 18:1.0 22:1.0 36:1.0 40:1.0 57:1.0 63:1.0 67:1.0 73:1.0 75:1.0 76:1.0 81:1.0 83:1.0 
-0.927763134259039 3:1.0 6:1.0 16:1.0 20:1.0 37:1.0 41:1.0 51:1.0 64:1.0 67:1.0 73:1.0 74:1.0 76:1.0 79:1.0 83:1.0 
-2.0 4:1.0 11:1.0 15:1.0 20:1.0 37:1.0 40:1.0 51:1.0 63:1.0 67:1.0 73:1.0 74:1.0 77:1.0 80:1.0 83:1.0 
-2.0 5:1.0 6:1.0 17:1.0 22:1.0 36:1.0 40:1.0 49:1.0 63:1.0 67:1.0 73:1.0 74:1.0 76:1.0 80:1.0 83:1.0 
-0.881664004110171 3:1.0 6:1.0 16:1.0 21:1.0 35:1.0 40:1.0 48:1.0 63:1.0 67:1.0 73:1.0 74:1.0 76:1.0 79:1.0 83:1.0 
-0.8586022613489266 4:1.0 10:1.0 15:1.0 29:1.0 39:1.0 41:1.0 52:1.0 64:1.0 69:1.0 73:1.0 74:1.0 76:1.0 80:1.0 83:1.0 
-2.0 4:1.0 6:1.0 17:1.0 20:1.0 37:1.0 40:1.0 51:1.0 63:1.0 67:1.0 73:1.0 74:1.0 76:1.0 80:1.0 86:1.0 
-2.0 3:1.0 6:1.0 18:1.0 19:1.0 39:1.0 41:1.0 51:1.0 64:1.0 67:1.0 73:1.0 74:1.0 77:1.0 80:1.0 83:1.0 
-2.0 5:1.0 10:1.0 17:1.0 22:1.0 36:1.0 40:1.0 59:1.0 63:1.0 67:1.0 73:1.0 75:1.0 76:1.0 80:1.0 83:1.0 
-2.0 4:1.0 6:1.0 14:1.0 25:1.0 38:1.0 40:1.0 49:1.0 63:1.0 67:1.0 73:1.0 74:1.0 76:1.0 81:1.0 83:1.0 
-2.0 3:1.0 6:1.0 17:1.0 20:1.0 37:1.0 40:1.0 53:1.0 63:1.0 71:1.0 73:1.0 74:1.0 76:1.0 80:1.0 83:1.0 
-2.0 3:1.0 6:1.0 18:1.0 29:1.0 39:1.0 42:1.0 51:1.0 66:1.0 67:1.0 73:1.0 74:1.0 76:1.0 80:1.0 83:1.0 
-0.9355116019860824 2:1.0 6:1.0 18:1.0 20:1.0 37:1.0 40:1.0 57:1.0 63:1.0 67:1.0 73:1.0 74:1.0 76:1.0 82:1.0 83:1.0 
-0.676684176152388 2:1.0 7:1.0 14:1.0 19:1.0 39:1.0 42:1.0 51:1.0 64:1.0 67:1.0 73:1.0 74:1.0 76:1.0 82:1.0 83:1.0 
-2.0 2:1.0 6:1.0 17:1.0 22:1.0 36:1.0 40:1.0 55:1.0 63:1.0 67:1.0 73:1.0 74:1.0 76:1.0 79:1.0 83:1.0 
-2.0 2:1.0 6:1.0 17:1.0 21:1.0 35:1.0 40:1.0 53:1.0 63:1.0 67:1.0 73:1.0 75:1.0 76:1.0 80:1.0 83:1.0 
-2.0 4:1.0 6:1.0 16:1.0 29:1.0 39:1.0 40:1.0 52:1.0 63:1.0 67:1.0 73:1.0 74:1.0 76:1.0 80:1.0 83:1.0 
-0.4105989036591067 5:1.0 6:1.0 17:1.0 29:1.0 39:1.0 41:1.0 52:1.0 64:1.0 67:1.0 73:1.0 74:1.0 76:1.0 78:1.0 83:1.0 
-0.07857503865423264 4:1.0 7:1.0 14:1.0 22:1.0 36:1.0 41:1.0 51:1.0 66:1.0 67:1.0 72:1.0 74:1.0 76:1.0 82:1.0 83:1.0 
-2.0 4:1.0 8:1.0 15:1.0 19:1.0 39:1.0 41:1.0 51:1.0 64:1.0 67:1.0 72:1.0 74:1.0 76:1.0 82:1.0 83:1.0 
-0.2376091965771976 1:1.0 8:1.0 16:1.0 22:1.0 36:1.0 40:1.0 50:1.0 63:1.0 67:1.0 73:1.0 74:1.0 76:1.0 82:1.0 
-2.0 4:1.0 6:1.0 18:1.0 22:1.0 36:1.0 40:1.0 54:1.0 63:1.0 67:1.0 73:1.0 74:1.0 76:1.0 80:1.0 83:1.0 
-2.0 2:1.0 11:1.0 18:1.0 19:1.0 39:1.0 40:1.0 52:1.0 63:1.0 67:1.0 73:1.0 74:1.0 76:1.0 78:1.0 83:1.0 
-2.0 3:1.0 6:1.0 16:1.0 19:1.0 39:1.0 42:1.0 50:1.0 64:1.0 67:1.0 72:1.0 74:1.0 77:1.0 80:1.0 83:1.0 
-0.49510144457650457 5:1.0 11:1.0 17:1.0 19:1.0 39:1.0 41:1.0 55:1.0 64:1.0 71:1.0 72:1.0 74:1.0 76:1.0 79:1.0 83:1.0 
-2.0 5:1.0 7:1.0 14:1.0 22:1.0 36:1.0 40:1.0 56:1.0 63:1.0 67:1.0 73:1.0 75:1.0 76:1.0 80:1.0 83:1.0 
-2.0 4:1.0 7:1.0 15:1.0 24:1.0 38:1.0 40:1.0 48:1.0 63:1.0 67:1.0 73:1.0 74:1.0 77:1.0 82:1.0 83:1.0 
-0.2206937360506532 2:1.0 6:1.0 16:1.0 22:1.0 36:1.0 40:1.0 48:1.0 63:1.0 67:1.0 73:1.0 74:1.0 76:1.0 81:1.0 83:1.0 
-2.0 3:1.0 6:1.0 16:1.0 19:1.0 39:1.0 40:1.0 52:1.0 63:1.0 71:1.0 73:1.0 74:1.0 76:1.0 82:1.0 
-2.0 3:1.0 6:1.0 16:1.0 19:1.0 39:1.0 44:1.0 52:1.0 66:1.0 67:1.0 72:1.0 74:1.0 76:1.0 81:1.0 83:1.0 
-2.0 5:1.0 6:1.0 17:1.0 20:1.0 37:1.0 40:1.0 50:1.0 63:1.0 67:1.0 73:1.0 74:1.0 76:1.0 80:1.0 83:1.0 
-0.10969352764143005 3:1.0 6:1.0 16:1.0 27:1.0 35:1.0 40:1.0 47:1.0 63:1.0 67:1.0 73:1.0 74:1.0 76:1.0 80:1.0 103:1.0 
-2.0 2:1.0 8:1.0 17:1.0 19:1.0 39:1.0 40:1.0 48:1.0 63:1.0 67:1.0 73:1.0 74:1.0 76:1.0 82:1.0 87:1.0 
-2.0 3:1.0 11:1.0 15:1.0 19:1.0 39:1.0 40:1.0 50:1.0 63:1.0 67:1.0 73:1.0 74:1.0 76:1.0 80:1.0 83:1.0 
-0.8153429155674433 4:1.0 10:1.0 16:1.0 19:1.0 39:1.0 41:1.0 52:1.0 66:1.0 71:1.0 72:1.0 74:1.0 76:1.0 78:1.0 83:1.0 
-2.0 4:1.0 10:1.0 16:1.0 22:1.0 36:1.0 40:1.0 48:1.0 63:1.0 67:1.0 73:1.0 74:1.0 76:1.0 80:1.0 83:1.0 
-2.0 5:1.0 6:1.0 16:1.0 22:1.0 36:1.0 40:1.0 57:1.0 63:1.0 67:1.0 73:1.0 74:1.0 76:1.0 82:1.0 83:1.0 
-2.0 5:1.0 6:1.0 14:1.0 19:1.0 39:1.0 40:1.0 47:1.0 63:1.0 67:1.0 73:1.0 74:1.0 76:1.0 80:1.0 83:1.0 
-2.0 4:1.0 7:1.0 17:1.0 25:1.0 38:1.0 40:1.0 52:1.0 63:1.0 67:1.0 73:1.0 74:1.0 76:1.0 78:1.0 83:1.0 
-0.3763435623262194 5:1.0 11:1.0 17:1.0 27:1.0 35:1.0 40:1.0 49:1.0 61:1.0 71:1.0 72:1.0 74:1.0 76:1.0 80:1.0 83:1.0 
-2.0 2:1.0 6:1.0 15:1.0 22:1.0 36:1.0 40:1.0 54:1.0 61:1.0 67:1.0 72:1.0 74:1.0 76:1.0 80:1.0 83:1.0 
